{"learner":{"attributes":{"scikit_learn":"{\"_estimator_type\": \"classifier\"}"},"feature_names":[],"feature_types":[],"gradient_booster":{"model":{"gbtree_model_param":{"num_parallel_tree":"1","num_trees":"200"},"iteration_indptr":[0,1,2,3,4,5,6,7,8,9,10,11,12,13,14,15,16,17,18,19,20,21,22,23,24,25,26,27,28,29,30,31,32,33,34,35,36,37,38,39,40,41,42,43,44,45,46,47,48,49,50,51,52,53,54,55,56,57,58,59,60,61,62,63,64,65,66,67,68,69,70,71,72,73,74,75,76,77,78,79,80,81,82,83,84,85,86,87,88,89,90,91,92,93,94,95,96,97,98,99,100,101,102,103,104,105,106,107,108,109,110,111,112,113,114,115,116,117,118,119,120,121,122,123,124,125,126,127,128,129,130,131,132,133,134,135,136,137,138,139,140,141,142,143,144,145,146,147,148,149,150,151,152,153,154,155,156,157,158,159,160,161,162,163,164,165,166,167,168,169,170,171,172,173,174,175,176,177,178,179,180,181,182,183,184,185,186,187,188,189,190,191,192,193,194,195,196,197,198,199,200],"tree_info":[0,0,0,0,0,0,0,0,0,0,0,0,0,0,0,0,0,0,0,0,0,0,0,0,0,0,0,0,0,0,0,0,0,0,0,0,0,0,0,0,0,0,0,0,0,0,0,0,0,0,0,0,0,0,0,0,0,0,0,0,0,0,0,0,0,0,0,0,0,0,0,0,0,0,0,0,0,0,0,0,0,0,0,0,0,0,0,0,0,0,0,0,0,0,0,0,0,0,0,0,0,0,0,0,0,0,0,0,0,0,0,0,0,0,0,0,0,0,0,0,0,0,0,0,0,0,0,0,0,0,0,0,0,0,0,0,0,0,0,0,0,0,0,0,0,0,0,0,0,0,0,0,0,0,0,0,0,0,0,0,0,0,0,0,0,0,0,0,0,0,0,0,0,0,0,0,0,0,0,0,0,0,0,0,0,0,0,0,0,0,0,0,0,0,0,0,0,0,0,0],"trees":[{"base_weights":[-7.851606E-1,-8.6933213E-1,7.758588E-1,-9.112381E-1,-2.0560859E-1,3.9851735E0,-1.5135165E-1,-9.4952595E-1,-4.0690726E-1,1.3105931E0,-4.3417478E-1,4.6560793E0,1.1193941E0,1.8986429E0,-3.2715726E-1,-9.8172194E-1,-4.7059515E-1,1.5164747E0,-6.390469E-1,4.061324E-1,2.0730026E0,-7.471821E-1,2.2907037E-1,4.7558928E0,1.0869584E0,2.5002813E0,9.757426E-2,3.9112294E0,2.8015727E-1,-7.6579314E-1,3.7445903E-1,-1.0196058E-1,-5.287878E-2,2.2880638E-1,-7.7426046E-2,4.5899373E-1,-1.3472214E-2,1.0323187E-1,-7.6646805E-2,2.820966E-1,-2.6683465E-2,2.7085647E-1,1.1227181E-1,-1.0130495E-1,-5.070138E-2,-3.4919392E-2,1.1289077E-1,5.1639265E-1,3.6926186E-1,2.3163691E-1,-4.5129206E-2,2.9594442E-1,-1.2250246E-2,-4.7686126E-2,1.0945816E-1,4.2964277E-1,-3.3362657E-3,-1.05385736E-1,1.1186935E-1,-9.2434734E-2,-1.4522805E-2,1.7960502E-1,6.406975E-4],"categories":[],"categories_nodes":[],"categories_segments":[],"categories_sizes":[],"default_left":[0,0,0,0,0,0,0,0,0,0,0,0,0,0,0,0,0,0,0,0,0,0,0,0,0,0,0,0,0,0,0,0,0,0,0,0,0,0,0,0,0,0,0,0,0,0,0,0,0,0,0,0,0,0,0,0,0,0,0,0,0,0,0],"id":0,"left_children":[1,3,5,7,9,11,13,15,17,19,21,23,25,27,29,31,33,35,37,39,41,43,45,47,49,51,53,55,57,59,61,-1,-1,-1,-1,-1,-1,-1,-1,-1,-1,-1,-1,-1,-1,-1,-1,-1,-1,-1,-1,-1,-1,-1,-1,-1,-1,-1,-1,-1,-1,-1,-1],"loss_changes":[1.90904E3,3.831289E2,2.2133728E3,2.4991992E2,2.846537E2,3.1533228E2,2.0889383E2,1.8530176E2,4.1014185E2,7.338074E1,1.4821295E2,4.284375E1,4.623896E1,1.480645E2,1.6435051E2,1.9314258E2,6.390863E2,5.02982E2,1.7508875E2,8.278039E1,3.208615E1,3.0436249E1,1.1976273E2,3.7685303E1,1.0430775E1,1.7185509E1,1.1961147E1,3.103955E1,3.0775593E1,3.2173553E1,1.0763898E2,0E0,0E0,0E0,0E0,0E0,0E0,0E0,0E0,0E0,0E0,0E0,0E0,0E0,0E0,0E0,0E0,0E0,0E0,0E0,0E0,0E0,0E0,0E0,0E0,0E0,0E0,0E0,0E0,0E0,0E0,0E0,0E0],"parents":[2147483647,0,0,1,1,2,2,3,3,4,4,5,5,6,6,7,7,8,8,9,9,10,10,11,11,12,12,13,13,14,14,15,15,16,16,17,17,18,18,19,19,20,20,21,21,22,22,23,23,24,24,25,25,26,26,27,27,28,28,29,29,30,30],"right_children":[2,4,6,8,10,12,14,16,18,20,22,24,26,28,30,32,34,36,38,40,42,44,46,48,50,52,54,56,58,60,62,-1,-1,-1,-1,-1,-1,-1,-1,-1,-1,-1,-1,-1,-1,-1,-1,-1,-1,-1,-1,-1,-1,-1,-1,-1,-1,-1,-1,-1,-1,-1,-1],"split_conditions":[1E0,1E0,6.773724E-1,1E0,5.776672E-1,4.685637E-1,2.891467E-1,1E0,5.418282E-1,9.665427E-2,1.0611687E-1,2.1112318E-1,6.454439E-1,7.308023E-1,2.837865E-1,1E0,8.123275E-1,5.234862E-1,3.9263418E-1,5.624923E-2,1.1220843E-1,7.3471874E-2,1E0,1.13045335E-1,6.542687E-1,5.893091E-1,4.1502964E-1,2.9965588E-1,1.9625387E-1,1.02326475E-1,3.5849127E-1,-1.0196058E-1,-5.287878E-2,2.2880638E-1,-7.7426046E-2,4.5899373E-1,-1.3472214E-2,1.0323187E-1,-7.6646805E-2,2.820966E-1,-2.6683465E-2,2.7085647E-1,1.1227181E-1,-1.0130495E-1,-5.070138E-2,-3.4919392E-2,1.1289077E-1,5.1639265E-1,3.6926186E-1,2.3163691E-1,-4.5129206E-2,2.9594442E-1,-1.2250246E-2,-4.7686126E-2,1.0945816E-1,4.2964277E-1,-3.3362657E-3,-1.05385736E-1,1.1186935E-1,-9.2434734E-2,-1.4522805E-2,1.7960502E-1,6.406975E-4],"split_indices":[30,27,11,28,17,9,9,24,11,18,18,6,11,11,12,29,11,9,9,15,15,18,44,0,11,9,12,8,12,18,9,0,0,0,0,0,0,0,0,0,0,0,0,0,0,0,0,0,0,0,0,0,0,0,0,0,0,0,0,0,0,0,0],"split_type":[0,0,0,0,0,0,0,0,0,0,0,0,0,0,0,0,0,0,0,0,0,0,0,0,0,0,0,0,0,0,0,0,0,0,0,0,0,0,0,0,0,0,0,0,0,0,0,0,0,0,0,0,0,0,0,0,0,0,0,0,0,0,0],"sum_hessian":[1.4523058E4,1.3780446E4,7.426106E2,1.2961701E4,8.18745E2,1.6571841E2,5.768922E2,1.2046287E4,9.154141E2,1.0663619E2,7.121088E2,1.3377559E2,3.1942823E1,4.4792004E1,5.321002E2,1.1286505E4,7.597829E2,9.799002E1,8.174241E2,4.9475353E1,5.7160843E1,4.8370563E2,2.284032E2,1.2981276E2,3.9628315E0,1.2969267E1,1.8973557E1,1.9333815E1,2.545819E1,3.273539E2,2.0474629E2,1.0414201E4,8.723033E2,7.4693375E1,6.8508954E2,3.3624027E1,6.436599E1,5.7401016E1,7.600231E2,1.0087208E1,3.9388145E1,3.314368E1,2.401716E1,2.2804294E2,2.5566267E2,1.3941962E2,8.898358E1,9.102504E1,3.8787716E1,1.9213729E0,2.0414586E0,1.0927809E1,2.0414586E0,1.2368838E1,6.604719E0,1.7532528E1,1.801287E0,9.726951E0,1.573124E1,2.6034604E2,6.700788E1,4.1309517E1,1.6343678E2],"tree_param":{"num_deleted":"0","num_feature":"45","num_nodes":"63","size_leaf_vector":"1"}},{"base_weights":[-7.523014E-1,-8.372472E-1,6.433336E-1,-9.920401E-1,-6.569319E-1,2.4754746E0,-2.460154E-1,-1.0378203E0,-5.779627E-1,-8.294107E-1,-3.413858E-1,2.9137728E0,5.9094816E-1,-6.53291E-1,4.2199776E-1,-1.051161E0,-3.3229795E-1,1.666687E0,-7.851747E-1,-9.3843853E-1,-3.2349703E-1,8.599012E-2,-7.42962E-1,3.3036296E0,2.1646912E0,1.784772E0,-1.6885768E-1,1.1433079E0,-7.5225985E-1,1.5451121E0,-2.5969932E-2,-1.0820949E-1,-8.655737E-2,3.767923E-1,-5.7457197E-2,3.061571E-1,-6.6087164E-2,-4.3188572E-2,-9.291787E-2,5.3261828E-2,-9.5546626E-2,-6.630872E-2,3.1735618E-2,2.2987919E-1,-2.88725E-3,-3.557589E-2,-9.104287E-2,3.3540997E-1,1.2613234E-1,2.6036063E-1,1.3024653E-1,2.2756255E-1,-7.6156197E-4,-4.176885E-2,1.1627413E-1,2.7778047E-1,-6.9575342E-3,-8.927205E-2,-2.3035716E-2,3.267618E-2,2.039856E-1,-2.9734576E-2,5.1284112E-2],"categories":[],"categories_nodes":[],"categories_segments":[],"categories_sizes":[],"default_left":[0,0,0,0,0,0,0,0,0,0,0,0,0,0,0,0,0,0,0,0,0,0,0,0,0,0,0,0,0,0,0,0,0,0,0,0,0,0,0,0,0,0,0,0,0,0,0,0,0,0,0,0,0,0,0,0,0,0,0,0,0,0,0],"id":1,"left_children":[1,3,5,7,9,11,13,15,17,19,21,23,25,27,29,31,33,35,37,39,41,43,45,47,49,51,53,55,57,59,61,-1,-1,-1,-1,-1,-1,-1,-1,-1,-1,-1,-1,-1,-1,-1,-1,-1,-1,-1,-1,-1,-1,-1,-1,-1,-1,-1,-1,-1,-1,-1,-1],"loss_changes":[1.6275195E3,3.6043164E2,1.2844796E3,1.3131982E2,3.2510547E2,2.110332E2,1.4483954E2,5.861621E1,3.2458893E2,2.128833E2,3.629957E2,5.3802124E1,4.552558E1,5.962416E1,1.01601685E2,3.436035E1,1.1911293E2,1.9377296E2,3.2005524E1,8.0143555E1,1.4967207E2,2.6067368E2,7.0378845E1,9.723267E0,2.4744385E1,1.7153103E1,1.08833065E1,3.5187763E1,2.2801025E1,3.4037796E1,2.1396732E1,0E0,0E0,0E0,0E0,0E0,0E0,0E0,0E0,0E0,0E0,0E0,0E0,0E0,0E0,0E0,0E0,0E0,0E0,0E0,0E0,0E0,0E0,0E0,0E0,0E0,0E0,0E0,0E0,0E0,0E0,0E0,0E0],"parents":[2147483647,0,0,1,1,2,2,3,3,4,4,5,5,6,6,7,7,8,8,9,9,10,10,11,11,12,12,13,13,14,14,15,15,16,16,17,17,18,18,19,19,20,20,21,21,22,22,23,23,24,24,25,25,26,26,27,27,28,28,29,29,30,30],"right_children":[2,4,6,8,10,12,14,16,18,20,22,24,26,28,30,32,34,36,38,40,42,44,46,48,50,52,54,56,58,60,62,-1,-1,-1,-1,-1,-1,-1,-1,-1,-1,-1,-1,-1,-1,-1,-1,-1,-1,-1,-1,-1,-1,-1,-1,-1,-1,-1,-1,-1,-1,-1,-1],"split_conditions":[1E0,5.4169637E-1,6.887128E-1,1E0,3.0320722E-1,4.685637E-1,2.837865E-1,1E0,4.405035E-1,1E0,4.9567506E-1,1.3790016E-1,6.524199E-1,2.7395105E-1,3.547222E-1,1E0,2.0180745E-1,7.2469634E-1,5.392433E-1,1.4156653E-1,1.0611687E-1,1.8568586E-1,5.96859E-1,7.4212685E-2,6.6720855E-1,2.9869786E-1,4.3084115E-1,7.4373096E-1,1.02326475E-1,8.4909804E-2,1E0,-1.0820949E-1,-8.655737E-2,3.767923E-1,-5.7457197E-2,3.061571E-1,-6.6087164E-2,-4.3188572E-2,-9.291787E-2,5.3261828E-2,-9.5546626E-2,-6.630872E-2,3.1735618E-2,2.2987919E-1,-2.88725E-3,-3.557589E-2,-9.104287E-2,3.3540997E-1,1.2613234E-1,2.6036063E-1,1.3024653E-1,2.2756255E-1,-7.6156197E-4,-4.176885E-2,1.1627413E-1,2.7778047E-1,-6.9575342E-3,-8.927205E-2,-2.3035716E-2,3.267618E-2,2.039856E-1,-2.9734576E-2,5.1284112E-2],"split_indices":[30,5,11,36,12,9,12,24,9,27,9,6,11,9,9,21,9,11,9,3,18,17,11,16,11,2,12,11,18,18,44,0,0,0,0,0,0,0,0,0,0,0,0,0,0,0,0,0,0,0,0,0,0,0,0,0,0,0,0,0,0,0,0],"split_type":[0,0,0,0,0,0,0,0,0,0,0,0,0,0,0,0,0,0,0,0,0,0,0,0,0,0,0,0,0,0,0,0,0,0,0,0,0,0,0,0,0,0,0,0,0,0,0,0,0,0,0,0,0,0,0,0,0,0,0,0,0,0,0],"sum_hessian":[1.372262E4,1.2935686E4,7.869345E2,6.9580225E3,5.9776626E3,2.5657758E2,5.3035693E2,6.263973E3,6.940494E2,3.8639712E3,2.1136917E3,2.0772037E2,4.8857224E1,3.29493E2,2.0086392E2,6.1472456E3,1.1672772E2,5.806033E1,6.359891E2,3.1781936E3,6.857775E2,1.0243339E3,1.0893577E3,1.343751E2,7.334526E1,1.847691E1,3.0380316E1,1.6652115E1,3.1284088E2,5.657464E1,1.4428928E2,5.2648623E3,8.823833E2,5.700511E0,1.11027214E2,3.6106617E1,2.1953714E1,1.8532501E2,4.5066406E2,3.6020607E1,3.142173E3,4.482263E2,2.3755124E2,4.9609276E1,9.747246E2,3.2984366E2,7.59514E2,1.3050764E2,3.8674567E0,4.726529E1,2.6079975E1,1.4293079E1,4.1838303E0,2.6175352E1,4.2049627E0,6.5436125E0,1.0108502E1,2.4594006E2,6.690083E1,1.6818375E1,3.9756264E1,9.625696E1,4.8032326E1],"tree_param":{"num_deleted":"0","num_feature":"45","num_nodes":"63","size_leaf_vector":"1"}},{"base_weights":[-7.2043836E-1,-8.057645E-1,5.529332E-1,-9.664803E-1,-6.23355E-1,1.8635557E0,-2.7330092E-1,-1.0145874E0,-5.4681015E-1,-8.080949E-1,-3.330753E-1,2.269817E0,5.021694E-1,-7.047884E-1,2.4537086E-1,-1.0286778E0,-3.0792722E-1,1.7107568E0,-7.173979E-1,-9.207018E-1,-3.201365E-1,6.596787E-2,-6.918107E-1,2.3443735E0,4.123225E-1,1.3424225E0,-4.5206624E-1,-8.995127E-1,6.418988E-2,1.1683677E0,-1.4594018E-1,-1.0615826E-1,-8.345235E-2,1.4303617E-1,-8.46877E-2,2.971961E-1,-2.6236087E-2,8.207118E-3,-8.094882E-2,4.923218E-2,-9.379419E-2,9.191264E-2,-4.8147045E-2,-8.729515E-2,3.3811804E-2,-2.6670173E-2,-8.720669E-2,2.51591E-1,1.6876045E-1,1.200422E-1,-4.6868786E-2,1.701973E-1,-4.735532E-2,-8.708213E-2,1.4293432E-2,1.2662098E-1,-9.160763E-2,2.850308E-1,-1.45743685E-2,7.558139E-2,1.9726516E-1,3.4040548E-2,-3.7077304E-2],"categories":[],"categories_nodes":[],"categories_segments":[],"categories_sizes":[],"default_left":[0,0,0,0,0,0,0,0,0,0,0,0,0,0,0,0,0,0,0,0,0,0,0,0,0,0,0,0,0,0,0,0,0,0,0,0,0,0,0,0,0,0,0,0,0,0,0,0,0,0,0,0,0,0,0,0,0,0,0,0,0,0,0],"id":2,"left_children":[1,3,5,7,9,11,13,15,17,19,21,23,25,27,29,31,33,35,37,39,41,43,45,47,49,51,53,55,57,59,61,-1,-1,-1,-1,-1,-1,-1,-1,-1,-1,-1,-1,-1,-1,-1,-1,-1,-1,-1,-1,-1,-1,-1,-1,-1,-1,-1,-1,-1,-1,-1,-1],"loss_changes":[1.4090981E3,3.5561963E2,8.8282306E2,1.2982275E2,3.0509082E2,1.7317456E2,1.1221019E2,5.736084E1,2.5782965E2,1.9086646E2,3.17303E2,3.2609863E1,5.971582E1,4.1016083E1,8.254838E1,3.5393066E1,1.0863872E2,1.1800319E2,4.5727478E1,6.930835E1,1.3116962E2,2.6862195E2,8.920441E1,2.1990479E1,7.901197E0,2.6566467E1,8.911573E0,8.991913E0,3.3288456E1,2.1078072E1,1.773785E1,0E0,0E0,0E0,0E0,0E0,0E0,0E0,0E0,0E0,0E0,0E0,0E0,0E0,0E0,0E0,0E0,0E0,0E0,0E0,0E0,0E0,0E0,0E0,0E0,0E0,0E0,0E0,0E0,0E0,0E0,0E0,0E0],"parents":[2147483647,0,0,1,1,2,2,3,3,4,4,5,5,6,6,7,7,8,8,9,9,10,10,11,11,12,12,13,13,14,14,15,15,16,16,17,17,18,18,19,19,20,20,21,21,22,22,23,23,24,24,25,25,26,26,27,27,28,28,29,29,30,30],"right_children":[2,4,6,8,10,12,14,16,18,20,22,24,26,28,30,32,34,36,38,40,42,44,46,48,50,52,54,56,58,60,62,-1,-1,-1,-1,-1,-1,-1,-1,-1,-1,-1,-1,-1,-1,-1,-1,-1,-1,-1,-1,-1,-1,-1,-1,-1,-1,-1,-1,-1,-1,-1,-1],"split_conditions":[1E0,5.4169637E-1,6.933813E-1,1E0,2.9348743E-1,4.5005473E-1,2.6740766E-1,1E0,4.1565654E-1,1E0,4.7777486E-1,2.1112318E-1,6.6720855E-1,1.0461312E-1,3.547222E-1,1E0,8.286358E-1,7.095097E-1,4.7777486E-1,1.4156653E-1,5.802158E-1,2.0337276E-1,5.989726E-1,1.2911838E-1,1.5477036E-1,5.7881755E-1,2.9591364E-1,2.1392755E-1,7.068499E-1,1.2013709E-1,3.737352E-2,-1.0615826E-1,-8.345235E-2,1.4303617E-1,-8.46877E-2,2.971961E-1,-2.6236087E-2,8.207118E-3,-8.094882E-2,4.923218E-2,-9.379419E-2,9.191264E-2,-4.8147045E-2,-8.729515E-2,3.3811804E-2,-2.6670173E-2,-8.720669E-2,2.51591E-1,1.6876045E-1,1.200422E-1,-4.6868786E-2,1.701973E-1,-4.735532E-2,-8.708213E-2,1.4293432E-2,1.2662098E-1,-9.160763E-2,2.850308E-1,-1.45743685E-2,7.558139E-2,1.9726516E-1,3.4040548E-2,-3.7077304E-2],"split_indices":[30,5,11,36,12,9,12,24,9,27,9,6,11,18,9,21,11,11,9,3,17,11,11,0,3,9,7,9,11,18,4,0,0,0,0,0,0,0,0,0,0,0,0,0,0,0,0,0,0,0,0,0,0,0,0,0,0,0,0,0,0,0,0],"split_type":[0,0,0,0,0,0,0,0,0,0,0,0,0,0,0,0,0,0,0,0,0,0,0,0,0,0,0,0,0,0,0,0,0,0,0,0,0,0,0,0,0,0,0,0,0,0,0,0,0,0,0,0,0,0,0,0,0,0,0,0,0,0,0],"sum_hessian":[1.2963836E4,1.2150052E4,8.137836E2,6.4568267E3,5.6932256E3,3.1417105E2,4.9961255E2,5.791523E3,6.653036E2,3.4779822E3,2.2152434E3,2.4145067E2,7.2720375E1,2.7253204E2,2.2708054E2,5.677854E3,1.1366866E2,4.6106E1,6.1919763E2,2.8251348E3,6.5284735E2,1.0490914E3,1.1661519E3,2.3188129E2,9.569384E0,3.8453396E1,3.426698E1,2.1732916E2,5.5202873E1,6.701783E1,1.600627E2,4.851214E3,8.2664044E2,2.6510305E1,8.715836E1,2.7818419E1,1.828758E1,6.3968918E1,5.552287E2,3.3721485E1,2.7914133E3,7.4660065E1,5.7818726E2,2.3525455E2,8.138369E2,3.4797678E2,8.181752E2,1.8161572E2,5.026556E1,4.859665E0,4.7097187E0,3.2150585E1,6.302813E0,1.9840137E1,1.4426841E1,1.0769042E0,2.1625226E2,2.986785E0,5.221609E1,4.5578346E1,2.1439482E1,5.043991E1,1.09622795E2],"tree_param":{"num_deleted":"0","num_feature":"45","num_nodes":"63","size_leaf_vector":"1"}},{"base_weights":[-6.8965584E-1,-7.749835E-1,4.8359245E-1,-9.40628E-1,-5.892559E-1,1.5323799E0,-2.529857E-1,-9.9171495E-1,-5.1249087E-1,-7.706077E-1,-2.921058E-1,1.7741747E0,1.2624925E-1,-6.718263E-1,2.1726401E-1,-1.0072944E0,-2.755314E-1,9.3019867E-1,-7.400119E-1,-8.8780177E-1,-2.819708E-1,1.3632746E-1,-6.255958E-1,1.9732858E0,1.2798402E0,1.003662E0,-5.2111834E-1,-8.707867E-1,6.10666E-2,9.8175496E-1,-1.3322206E-1,-1.0421773E-1,-8.089017E-2,2.2488372E-1,-6.0909778E-2,1.9729757E-1,-3.2096293E-2,-8.881638E-2,-3.987619E-2,5.74389E-2,-9.067635E-2,-8.130706E-2,1.10017555E-2,-8.301284E-2,4.16754E-2,-9.761663E-3,-7.7462785E-2,2.1831231E-1,1.5800421E-1,1.4493237E-1,-1.0693482E-3,-3.5916008E-2,1.4146577E-1,1.1991514E-1,-6.3265234E-2,1.15424134E-1,-8.880402E-2,1.9068395E-1,-2.1203756E-2,1.5930639E-1,5.1416773E-2,8.241242E-3,-6.10326E-2],"categories":[],"categories_nodes":[],"categories_segments":[],"categories_sizes":[],"default_left":[0,0,0,0,0,0,0,0,0,0,0,0,0,0,0,0,0,0,0,0,0,0,0,0,0,0,0,0,0,0,0,0,0,0,0,0,0,0,0,0,0,0,0,0,0,0,0,0,0,0,0,0,0,0,0,0,0,0,0,0,0,0,0],"id":3,"left_children":[1,3,5,7,9,11,13,15,17,19,21,23,25,27,29,31,33,35,37,39,41,43,45,47,49,51,53,55,57,59,61,-1,-1,-1,-1,-1,-1,-1,-1,-1,-1,-1,-1,-1,-1,-1,-1,-1,-1,-1,-1,-1,-1,-1,-1,-1,-1,-1,-1,-1,-1,-1,-1],"loss_changes":[1.2267905E3,3.5079248E2,6.4247845E2,1.3148877E2,2.9004785E2,1.1641235E2,9.648239E1,5.9868652E1,2.1254018E2,1.9126941E2,2.9199948E2,2.6278442E1,2.9725298E1,3.7811523E1,6.2072205E1,3.5665527E1,9.916673E1,1.1591913E2,2.785907E1,7.5296875E1,1.350813E2,2.4292902E2,9.033618E1,1.3612488E1,1.9016617E1,1.292544E1,6.561201E0,8.142838E0,2.8745033E1,1.9986465E1,1.6447943E1,0E0,0E0,0E0,0E0,0E0,0E0,0E0,0E0,0E0,0E0,0E0,0E0,0E0,0E0,0E0,0E0,0E0,0E0,0E0,0E0,0E0,0E0,0E0,0E0,0E0,0E0,0E0,0E0,0E0,0E0,0E0,0E0],"parents":[2147483647,0,0,1,1,2,2,3,3,4,4,5,5,6,6,7,7,8,8,9,9,10,10,11,11,12,12,13,13,14,14,15,15,16,16,17,17,18,18,19,19,20,20,21,21,22,22,23,23,24,24,25,25,26,26,27,27,28,28,29,29,30,30],"right_children":[2,4,6,8,10,12,14,16,18,20,22,24,26,28,30,32,34,36,38,40,42,44,46,48,50,52,54,56,58,60,62,-1,-1,-1,-1,-1,-1,-1,-1,-1,-1,-1,-1,-1,-1,-1,-1,-1,-1,-1,-1,-1,-1,-1,-1,-1,-1,-1,-1,-1,-1,-1,-1],"split_conditions":[1E0,5.447157E-1,6.933813E-1,1E0,2.99301E-1,4.8668617E-1,2.6740766E-1,1E0,4.5612934E-1,1E0,4.6230915E-1,3.8915604E-1,6.596444E-1,1.0461312E-1,3.547222E-1,1E0,7.9618853E-1,7.068499E-1,1E0,1.4156653E-1,8.588376E-2,2.0337276E-1,5.851053E-1,3.3523154E-1,1.6863352E-1,2.4179244E-1,1.3304037E-1,2.1392755E-1,2.7061197E-1,7.2150654E-1,7.3385817E-1,-1.0421773E-1,-8.089017E-2,2.2488372E-1,-6.0909778E-2,1.9729757E-1,-3.2096293E-2,-8.881638E-2,-3.987619E-2,5.74389E-2,-9.067635E-2,-8.130706E-2,1.10017555E-2,-8.301284E-2,4.16754E-2,-9.761663E-3,-7.7462785E-2,2.1831231E-1,1.5800421E-1,1.4493237E-1,-1.0693482E-3,-3.5916008E-2,1.4146577E-1,1.1991514E-1,-6.3265234E-2,1.15424134E-1,-8.880402E-2,1.9068395E-1,-2.1203756E-2,1.5930639E-1,5.1416773E-2,8.241242E-3,-6.10326E-2],"split_indices":[30,5,11,36,12,9,12,24,9,27,9,9,11,18,9,21,11,11,44,3,18,11,11,12,0,7,14,9,9,11,11,0,0,0,0,0,0,0,0,0,0,0,0,0,0,0,0,0,0,0,0,0,0,0,0,0,0,0,0,0,0,0,0],"split_type":[0,0,0,0,0,0,0,0,0,0,0,0,0,0,0,0,0,0,0,0,0,0,0,0,0,0,0,0,0,0,0,0,0,0,0,0,0,0,0,0,0,0,0,0,0,0,0,0,0,0,0,0,0,0,0,0,0,0,0,0,0,0,0],"sum_hessian":[1.2249614E4,1.1419443E4,8.3017053E2,6.0339194E3,5.385524E3,3.42053E2,4.8811752E2,5.3895063E3,6.4441315E2,3.3434258E3,2.0420979E3,2.9164133E2,5.041167E1,2.5794403E2,2.3017348E2,5.2743643E3,1.151423E2,8.736315E1,5.5705005E2,2.696003E3,6.474228E2,8.940748E2,1.1480231E3,2.0576872E2,8.587262E1,2.1169336E1,2.9242336E1,2.0272232E2,5.522172E1,7.178742E1,1.5838605E2,4.482045E3,7.923189E2,1.2768774E1,1.0237353E2,4.7335007E1,4.002814E1,3.8730212E2,1.697479E2,3.4139175E1,2.6618638E3,2.744712E2,3.729516E2,2.006385E2,6.9343634E2,2.5308124E2,8.9494183E2,1.3120522E2,7.45635E1,7.5795494E1,1.0077124E1,4.934182E0,1.6235153E1,1.1867528E0,2.8055584E1,1.1559045E0,2.015664E2,6.346544E0,4.8875175E1,3.0069075E1,4.1718353E1,1.09653656E2,4.873239E1],"tree_param":{"num_deleted":"0","num_feature":"45","num_nodes":"63","size_leaf_vector":"1"}},{"base_weights":[-6.5974605E-1,-7.447737E-1,4.281191E-1,-9.120073E-1,-5.525145E-1,1.2989771E0,-2.3430163E-1,-9.6692103E-1,-4.7456622E-1,-7.151509E-1,-1.9944747E-1,1.4897984E0,1.13911815E-1,-5.2905226E-1,3.7300956E-1,-9.8496807E-1,-2.6928556E-1,6.584284E-1,-7.131064E-1,-8.335907E-1,-2.2274703E-1,2.82497E-1,-6.258207E-1,1.7172536E0,1.1444315E0,8.5666704E-1,-4.8769873E-1,-8.51409E-1,-1.2903726E-1,7.3211074E-1,-4.3404666E-1,-1.0207105E-1,-7.948633E-2,1.5281092E-1,-7.23832E-2,1.9980086E-1,-1.582058E-3,-8.8391356E-2,-3.3610296E-2,7.974277E-2,-8.551338E-2,2.521557E-2,-6.581963E-2,1.1138828E-1,-4.0805936E-3,-2.8812572E-2,-8.163478E-2,1.8593132E-1,1.2018408E-1,1.3088624E-1,-1.741452E-3,1.1898895E-1,-4.345384E-2,-9.876229E-2,-3.524128E-3,6.457315E-2,-8.700787E-2,3.2253772E-2,-4.135951E-2,1.4460653E-1,2.2812765E-2,-6.2876664E-2,8.2316615E-2],"categories":[],"categories_nodes":[],"categories_segments":[],"categories_sizes":[],"default_left":[0,0,0,0,0,0,0,0,0,0,0,0,0,0,0,0,0,0,0,0,0,0,0,0,0,0,0,0,0,0,0,0,0,0,0,0,0,0,0,0,0,0,0,0,0,0,0,0,0,0,0,0,0,0,0,0,0,0,0,0,0,0,0],"id":4,"left_children":[1,3,5,7,9,11,13,15,17,19,21,23,25,27,29,31,33,35,37,39,41,43,45,47,49,51,53,55,57,59,61,-1,-1,-1,-1,-1,-1,-1,-1,-1,-1,-1,-1,-1,-1,-1,-1,-1,-1,-1,-1,-1,-1,-1,-1,-1,-1,-1,-1,-1,-1,-1,-1],"loss_changes":[1.0716421E3,3.449004E2,4.8503085E2,1.3751514E2,2.8696533E2,8.19563E1,8.577847E1,6.3972656E1,1.7413733E2,1.9943176E2,3.2448438E2,2.2600586E1,2.3408585E1,4.1448425E1,4.576198E1,3.2980957E1,1.0734543E2,1.01443634E2,3.391623E1,9.76167E1,1.376907E2,1.9935966E2,5.366272E1,1.1424316E1,2.4318161E1,1.0579643E1,6.5392113E0,5.5452423E0,1.8765661E1,3.8851353E1,1.2491797E1,0E0,0E0,0E0,0E0,0E0,0E0,0E0,0E0,0E0,0E0,0E0,0E0,0E0,0E0,0E0,0E0,0E0,0E0,0E0,0E0,0E0,0E0,0E0,0E0,0E0,0E0,0E0,0E0,0E0,0E0,0E0,0E0],"parents":[2147483647,0,0,1,1,2,2,3,3,4,4,5,5,6,6,7,7,8,8,9,9,10,10,11,11,12,12,13,13,14,14,15,15,16,16,17,17,18,18,19,19,20,20,21,21,22,22,23,23,24,24,25,25,26,26,27,27,28,28,29,29,30,30],"right_children":[2,4,6,8,10,12,14,16,18,20,22,24,26,28,30,32,34,36,38,40,42,44,46,48,50,52,54,56,58,60,62,-1,-1,-1,-1,-1,-1,-1,-1,-1,-1,-1,-1,-1,-1,-1,-1,-1,-1,-1,-1,-1,-1,-1,-1,-1,-1,-1,-1,-1,-1,-1,-1],"split_conditions":[1E0,5.5971146E-1,6.933813E-1,1E0,3.2551312E-1,4.8668617E-1,9.902945E-2,1E0,4.685637E-1,1E0,4.9567506E-1,6.579318E-1,6.596444E-1,2.6874024E-1,7.49661E-1,1E0,2.6472032E-1,6.751878E-1,1E0,1.4156653E-1,6.2231696E-1,6.5509313E-1,5.96859E-1,1E0,1.7600256E-1,5.893091E-1,2.785172E-1,2.315873E-1,3.737352E-2,3.4675273E-1,3.4064573E-1,-1.0207105E-1,-7.948633E-2,1.5281092E-1,-7.23832E-2,1.9980086E-1,-1.582058E-3,-8.8391356E-2,-3.3610296E-2,7.974277E-2,-8.551338E-2,2.521557E-2,-6.581963E-2,1.1138828E-1,-4.0805936E-3,-2.8812572E-2,-8.163478E-2,1.8593132E-1,1.2018408E-1,1.3088624E-1,-1.741452E-3,1.1898895E-1,-4.345384E-2,-9.876229E-2,-3.524128E-3,6.457315E-2,-8.700787E-2,3.2253772E-2,-4.135951E-2,1.4460653E-1,2.2812765E-2,-6.2876664E-2,8.2316615E-2],"split_indices":[30,5,11,36,12,9,18,24,9,27,9,11,11,12,11,21,9,11,44,3,17,5,11,40,0,9,7,9,4,9,12,0,0,0,0,0,0,0,0,0,0,0,0,0,0,0,0,0,0,0,0,0,0,0,0,0,0,0,0,0,0,0,0],"split_type":[0,0,0,0,0,0,0,0,0,0,0,0,0,0,0,0,0,0,0,0,0,0,0,0,0,0,0,0,0,0,0,0,0,0,0,0,0,0,0,0,0,0,0,0,0,0,0,0,0,0,0,0,0,0,0,0,0,0,0,0,0,0,0],"sum_hessian":[1.1581051E4,1.0741787E4,8.3926355E2,5.7427793E3,4.999008E3,3.6217096E2,4.7709262E2,5.1011953E3,6.415841E2,3.4217783E3,1.5772297E3,3.1172006E2,5.045087E1,3.2128833E2,1.5580428E2,4.972159E3,1.2903598E2,1.11279495E2,5.303046E2,2.7577522E3,6.6402594E2,7.4052545E2,8.367042E2,1.8554791E2,1.2617216E2,2.23873E1,2.806357E1,1.7728926E2,1.4399905E2,1.0789089E2,4.791339E1,4.18159E3,7.9056915E2,2.5568735E1,1.0346725E2,3.6600082E1,7.4679405E1,3.640305E2,1.6627411E2,3.5481117E1,2.7222712E3,3.1782532E2,3.4620065E2,2.0665611E2,5.338694E2,3.027013E2,5.340029E2,1.4341263E2,4.2135284E1,1.1041858E2,1.575358E1,1.7857313E1,4.5299864E0,1.2770518E1,1.5293053E1,1.7699316E0,1.7551933E2,5.561236E1,8.83867E1,4.3871784E1,6.4019104E1,4.1920517E1,5.992873E0],"tree_param":{"num_deleted":"0","num_feature":"45","num_nodes":"63","size_leaf_vector":"1"}},{"base_weights":[-6.304986E-1,-7.148987E-1,3.8142475E-1,-8.929436E-1,-5.267758E-1,1.0643764E0,-2.7768934E-1,-9.490835E-1,-4.5686013E-1,-7.1753013E-1,-2.554191E-1,1.3299001E0,1.6379514E-1,-7.216616E-1,7.989925E-2,-9.663802E-1,-2.3793508E-1,5.9955484E-1,-7.007687E-1,-8.412469E-1,-2.5609446E-1,3.154095E-2,-6.5661246E-1,1.4702767E0,8.32852E-1,8.3305454E-1,-4.583684E-1,6.4905375E-1,-8.107478E-1,6.790794E-1,-2.2152252E-1,-1.0063598E-1,-7.477629E-2,-7.340301E-2,1.22114144E-1,1.2922052E-1,-4.52836E-2,5.981229E-3,-7.715034E-2,-1.7815883E-3,-8.7506466E-2,-7.812887E-2,1.0365444E-2,1.1385129E-1,-1.1056809E-2,-3.2700896E-2,-8.313911E-2,1.6268319E-1,1.1028292E-1,6.011805E-2,1.7848401E-1,1.0313276E-1,-5.3525444E-2,-7.803797E-2,2.2352124E-3,-6.527862E-2,1.6433418E-1,-9.168463E-2,-3.8897548E-2,9.0487875E-2,-5.3525735E-3,-3.6512956E-2,4.4757657E-2],"categories":[],"categories_nodes":[],"categories_segments":[],"categories_sizes":[],"default_left":[0,0,0,0,0,0,0,0,0,0,0,0,0,0,0,0,0,0,0,0,0,0,0,0,0,0,0,0,0,0,0,0,0,0,0,0,0,0,0,0,0,0,0,0,0,0,0,0,0,0,0,0,0,0,0,0,0,0,0,0,0,0,0],"id":5,"left_children":[1,3,5,7,9,11,13,15,17,19,21,23,25,27,29,31,33,35,37,39,41,43,45,47,49,51,53,55,57,59,61,-1,-1,-1,-1,-1,-1,-1,-1,-1,-1,-1,-1,-1,-1,-1,-1,-1,-1,-1,-1,-1,-1,-1,-1,-1,-1,-1,-1,-1,-1,-1,-1],"loss_changes":[9.3640625E2,3.384077E2,3.8043033E2,1.2678613E2,2.5458813E2,9.9006195E1,6.840845E1,5.6387695E1,1.536326E2,1.6474756E2,2.3410431E2,2.112555E1,4.0198627E1,2.3991959E1,4.3381104E1,3.852002E1,8.096835E1,8.22796E1,2.606015E1,6.3426514E1,1.15784546E2,1.8675182E2,4.857489E1,1.249939E1,1.4993759E1,1.3146618E1,7.7883835E0,1.6971329E1,7.7377853E0,1.3341515E1,1.553796E1,0E0,0E0,0E0,0E0,0E0,0E0,0E0,0E0,0E0,0E0,0E0,0E0,0E0,0E0,0E0,0E0,0E0,0E0,0E0,0E0,0E0,0E0,0E0,0E0,0E0,0E0,0E0,0E0,0E0,0E0,0E0,0E0],"parents":[2147483647,0,0,1,1,2,2,3,3,4,4,5,5,6,6,7,7,8,8,9,9,10,10,11,11,12,12,13,13,14,14,15,15,16,16,17,17,18,18,19,19,20,20,21,21,22,22,23,23,24,24,25,25,26,26,27,27,28,28,29,29,30,30],"right_children":[2,4,6,8,10,12,14,16,18,20,22,24,26,28,30,32,34,36,38,40,42,44,46,48,50,52,54,56,58,60,62,-1,-1,-1,-1,-1,-1,-1,-1,-1,-1,-1,-1,-1,-1,-1,-1,-1,-1,-1,-1,-1,-1,-1,-1,-1,-1,-1,-1,-1,-1,-1,-1],"split_conditions":[1E0,5.447157E-1,7.0122313E-1,1E0,2.9348743E-1,4.5005473E-1,2.4809183E-1,1E0,4.685637E-1,1E0,5.1075184E-1,1.556187E-1,6.6720855E-1,2.7061197E-1,3.547222E-1,1E0,2.6987576E-1,7.095097E-1,6.309812E-1,1.7094952E-1,8.588376E-2,2.1616043E-1,5.96859E-1,2.4707447E-1,1.1489487E-1,5.893091E-1,8.0130965E-2,1.9162238E-1,1.0495213E-1,7.5616986E-1,3.7041172E-1,-1.0063598E-1,-7.477629E-2,-7.340301E-2,1.22114144E-1,1.2922052E-1,-4.52836E-2,5.981229E-3,-7.715034E-2,-1.7815883E-3,-8.7506466E-2,-7.812887E-2,1.0365444E-2,1.1385129E-1,-1.1056809E-2,-3.2700896E-2,-8.313911E-2,1.6268319E-1,1.1028292E-1,6.011805E-2,1.7848401E-1,1.0313276E-1,-5.3525444E-2,-7.803797E-2,2.2352124E-3,-6.527862E-2,1.6433418E-1,-9.168463E-2,-3.8897548E-2,9.0487875E-2,-5.3525735E-3,-3.6512956E-2,4.4757657E-2],"split_indices":[30,5,11,36,12,9,12,24,9,27,9,6,11,9,9,21,12,11,11,3,18,17,11,14,18,9,18,12,18,11,12,0,0,0,0,0,0,0,0,0,0,0,0,0,0,0,0,0,0,0,0,0,0,0,0,0,0,0,0,0,0,0,0],"split_type":[0,0,0,0,0,0,0,0,0,0,0,0,0,0,0,0,0,0,0,0,0,0,0,0,0,0,0,0,0,0,0,0,0,0,0,0,0,0,0,0,0,0,0,0,0,0,0,0,0,0,0,0,0,0,0,0,0,0,0,0,0,0,0],"sum_hessian":[1.0959932E4,1.0116456E4,8.434756E2,5.1955195E3,4.920936E3,4.13945E2,4.2953055E2,4.601909E3,5.936103E2,2.8886624E3,2.0322738E3,3.1932095E2,9.462405E1,1.9116595E2,2.3836461E2,4.4922886E3,1.0962104E2,1.11073135E2,4.8253717E2,2.2772734E3,6.11389E2,1.1853525E3,8.469213E2,2.4747182E2,7.1849144E1,4.542334E1,4.920071E1,1.1282549E1,1.798834E2,7.935873E1,1.5900587E2,3.7947246E3,6.975637E2,8.217721E1,2.7443834E1,6.6848015E1,4.4225117E1,4.1071026E1,4.4146613E2,8.989666E1,2.1873767E3,2.4806677E2,3.633222E2,1.340609E2,1.0512916E3,2.9447025E2,5.5245105E2,1.7113179E2,7.634003E1,5.909866E1,1.2750484E1,3.988948E1,5.533858E0,2.9090828E1,2.0109882E1,5.0343904E0,6.2481585E0,1.4279019E2,3.709322E1,6.0482124E1,1.8876602E1,1.3128319E2,2.7722681E1],"tree_param":{"num_deleted":"0","num_feature":"45","num_nodes":"63","size_leaf_vector":"1"}},{"base_weights":[-6.018387E-1,-6.852968E-1,3.419816E-1,-8.709488E-1,-4.981687E-1,9.329331E-1,-2.5805002E-1,-9.2901796E-1,-4.3520442E-1,-7.021992E-1,-2.5836772E-1,1.1574563E0,1.4552566E-1,-6.921861E-1,7.133796E-2,-9.464187E-1,-2.3330325E-1,5.2299666E-1,-6.7602444E-1,-8.271458E-1,-2.692771E-1,6.0416095E-2,-5.574558E-1,1.4001096E0,8.931376E-1,7.243112E-1,-4.2917058E-1,6.3053405E-1,-7.7865285E-1,8.1087947E-1,-1.23008035E-1,-9.8951004E-2,-7.117855E-2,1.0027094E-1,-7.619615E-2,9.873962E-2,-6.634869E-2,-8.4069185E-2,-3.2207694E-2,-2.833745E-3,-8.614456E-2,-5.8299113E-2,2.3698539E-2,-7.78085E-2,3.2401685E-2,-1.2424036E-2,-7.5920746E-2,1.4316809E-1,-9.277058E-3,1.22518055E-1,4.535233E-2,9.7872116E-2,-1.7211296E-2,-1.8817693E-3,-8.0904886E-2,-6.0107756E-2,1.5020292E-1,-8.940231E-2,-3.4580905E-2,5.079906E-2,1.4752726E-1,-3.4408286E-2,3.8097333E-2],"categories":[],"categories_nodes":[],"categories_segments":[],"categories_sizes":[],"default_left":[0,0,0,0,0,0,0,0,0,0,0,0,0,0,0,0,0,0,0,0,0,0,0,0,0,0,0,0,0,0,0,0,0,0,0,0,0,0,0,0,0,0,0,0,0,0,0,0,0,0,0,0,0,0,0,0,0,0,0,0,0,0,0],"id":6,"left_children":[1,3,5,7,9,11,13,15,17,19,21,23,25,27,29,31,33,35,37,39,41,43,45,47,49,51,53,55,57,59,61,-1,-1,-1,-1,-1,-1,-1,-1,-1,-1,-1,-1,-1,-1,-1,-1,-1,-1,-1,-1,-1,-1,-1,-1,-1,-1,-1,-1,-1,-1,-1,-1],"loss_changes":[8.1817993E2,3.3101904E2,2.996161E2,1.2074585E2,2.3240771E2,7.507016E1,6.0067352E1,5.0915527E1,1.3070883E2,1.3868054E2,2.085452E2,1.9979706E1,3.209975E1,2.121019E1,3.4529633E1,4.095752E1,6.898048E1,6.348284E1,2.6066772E1,5.4561768E1,9.1717636E1,2.3443529E2,9.853165E1,8.183716E0,2.2973877E1,1.1112429E1,7.557955E0,1.3426885E1,8.204613E0,9.309067E0,2.1363651E1,0E0,0E0,0E0,0E0,0E0,0E0,0E0,0E0,0E0,0E0,0E0,0E0,0E0,0E0,0E0,0E0,0E0,0E0,0E0,0E0,0E0,0E0,0E0,0E0,0E0,0E0,0E0,0E0,0E0,0E0,0E0,0E0],"parents":[2147483647,0,0,1,1,2,2,3,3,4,4,5,5,6,6,7,7,8,8,9,9,10,10,11,11,12,12,13,13,14,14,15,15,16,16,17,17,18,18,19,19,20,20,21,21,22,22,23,23,24,24,25,25,26,26,27,27,28,28,29,29,30,30],"right_children":[2,4,6,8,10,12,14,16,18,20,22,24,26,28,30,32,34,36,38,40,42,44,46,48,50,52,54,56,58,60,62,-1,-1,-1,-1,-1,-1,-1,-1,-1,-1,-1,-1,-1,-1,-1,-1,-1,-1,-1,-1,-1,-1,-1,-1,-1,-1,-1,-1,-1,-1,-1,-1],"split_conditions":[1E0,5.4169637E-1,7.0122313E-1,1E0,2.8047597E-1,4.5005473E-1,2.4809183E-1,1E0,4.685637E-1,1E0,4.5612934E-1,8.207401E-2,6.6720855E-1,2.6749977E-1,3.1953636E-1,1E0,8.286358E-1,7.2469634E-1,1E0,1.7094952E-1,1.0611687E-1,2.1995668E-1,6.0314626E-1,7.8471296E-2,3.4675273E-1,1E0,5.0783E-1,1.9162238E-1,1.0495213E-1,1E0,3.4064573E-1,-9.8951004E-2,-7.117855E-2,1.0027094E-1,-7.619615E-2,9.873962E-2,-6.634869E-2,-8.4069185E-2,-3.2207694E-2,-2.833745E-3,-8.614456E-2,-5.8299113E-2,2.3698539E-2,-7.78085E-2,3.2401685E-2,-1.2424036E-2,-7.5920746E-2,1.4316809E-1,-9.277058E-3,1.22518055E-1,4.535233E-2,9.7872116E-2,-1.7211296E-2,-1.8817693E-3,-8.0904886E-2,-6.0107756E-2,1.5020292E-1,-8.940231E-2,-3.4580905E-2,5.079906E-2,1.4752726E-1,-3.4408286E-2,3.8097333E-2],"split_indices":[30,5,11,36,12,9,12,24,9,27,9,0,11,9,9,21,11,11,44,3,18,11,11,16,9,38,9,12,18,44,12,0,0,0,0,0,0,0,0,0,0,0,0,0,0,0,0,0,0,0,0,0,0,0,0,0,0,0,0,0,0,0,0],"split_type":[0,0,0,0,0,0,0,0,0,0,0,0,0,0,0,0,0,0,0,0,0,0,0,0,0,0,0,0,0,0,0,0,0,0,0,0,0,0,0,0,0,0,0,0,0,0,0,0,0,0,0,0,0,0,0,0,0,0,0,0,0,0,0],"sum_hessian":[1.0383047E4,9.53976E3,8.432869E2,4.786932E3,4.752828E3,4.245786E2,4.1870834E2,4.223022E3,5.639101E2,2.5668987E3,2.1859294E3,3.3000906E2,9.4569534E1,1.8015764E2,2.385507E2,4.119624E3,1.0339777E2,1.13024414E2,4.5088568E2,1.9912803E3,5.756183E2,1.0585107E3,1.1274187E3,1.6981566E2,1.6019342E2,4.698743E1,4.7582104E1,1.0668261E1,1.6948938E2,4.8983246E1,1.8956746E2,3.4777112E3,6.41913E2,3.070716E1,7.269061E1,8.135082E1,3.1673592E1,3.0678467E2,1.4410101E2,8.205777E1,1.9092225E3,3.5529944E2,2.2031883E2,2.5270781E2,8.05803E2,3.5873447E2,7.686842E2,1.6633893E2,3.4767256E0,9.024441E1,6.9949005E1,3.6528606E1,1.0458822E1,2.33781E1,2.4204006E1,4.5493426E0,6.118918E0,1.3297954E2,3.6509853E1,3.4856968E1,1.4126278E1,1.3198752E2,5.757994E1],"tree_param":{"num_deleted":"0","num_feature":"45","num_nodes":"63","size_leaf_vector":"1"}},{"base_weights":[-5.7374734E-1,-6.5602124E-1,3.0783206E-1,-8.4131867E-1,-4.616581E-1,8.0870605E-1,-2.595329E-1,-9.0428346E-1,-3.9297986E-1,-6.2657607E-1,-1.3753116E-1,9.997107E-1,1.498147E-1,-7.8303033E-1,-1.6440883E-2,-9.2543817E-1,-2.076332E-1,1.3136743E-1,-7.7022606E-1,-7.529602E-1,-1.6806279E-1,1.4799373E-1,-7.247776E-1,1.0929203E0,3.791366E-1,-2.7951908E-1,6.9354224E-1,2.8689677E-1,-8.5914654E-1,-3.4906083E-1,4.5111072E-1,-9.686615E-2,-7.1257606E-2,9.032102E-2,-8.338347E-2,1.2976153E-1,-3.3549987E-2,-5.606851E-2,-9.346927E-2,1.6719768E-2,-7.9140775E-2,2.6713086E-2,-5.9984356E-2,6.0778018E-2,-2.167272E-2,-1.5631013E-2,-7.956944E-2,1.2473171E-1,8.023204E-2,8.9652665E-2,-2.4507446E-3,-5.4028756E-3,-9.630711E-2,-3.8585044E-2,1.16135515E-1,1.5133908E-1,-5.0290365E-2,-9.979183E-2,-6.314478E-2,-5.8256578E-2,1.14455735E-2,8.041432E-2,-1.0556741E-2],"categories":[],"categories_nodes":[],"categories_segments":[],"categories_sizes":[],"default_left":[0,0,0,0,0,0,0,0,0,0,0,0,0,0,0,0,0,0,0,0,0,0,0,0,0,0,0,0,0,0,0,0,0,0,0,0,0,0,0,0,0,0,0,0,0,0,0,0,0,0,0,0,0,0,0,0,0,0,0,0,0,0,0],"id":7,"left_children":[1,3,5,7,9,11,13,15,17,19,21,23,25,27,29,31,33,35,37,39,41,43,45,47,49,51,53,55,57,59,61,-1,-1,-1,-1,-1,-1,-1,-1,-1,-1,-1,-1,-1,-1,-1,-1,-1,-1,-1,-1,-1,-1,-1,-1,-1,-1,-1,-1,-1,-1,-1,-1],"loss_changes":[7.1465137E2,3.2409888E2,2.3934406E2,1.2981812E2,2.3508801E2,5.6128235E1,5.0294136E1,5.9385498E1,1.1277715E2,1.6883008E2,2.4908762E2,1.9628601E1,2.3928846E1,1.045372E1,4.2299255E1,3.5405273E1,8.452614E1,1.3067393E2,1.089769E1,8.098242E1,1.1878524E2,1.678183E2,1.946634E1,1.2492065E1,9.79146E0,8.814781E0,2.324581E1,9.551001E0,3.0751343E0,1.7265017E1,2.2307638E1,0E0,0E0,0E0,0E0,0E0,0E0,0E0,0E0,0E0,0E0,0E0,0E0,0E0,0E0,0E0,0E0,0E0,0E0,0E0,0E0,0E0,0E0,0E0,0E0,0E0,0E0,0E0,0E0,0E0,0E0,0E0,0E0],"parents":[2147483647,0,0,1,1,2,2,3,3,4,4,5,5,6,6,7,7,8,8,9,9,10,10,11,11,12,12,13,13,14,14,15,15,16,16,17,17,18,18,19,19,20,20,21,21,22,22,23,23,24,24,25,25,26,26,27,27,28,28,29,29,30,30],"right_children":[2,4,6,8,10,12,14,16,18,20,22,24,26,28,30,32,34,36,38,40,42,44,46,48,50,52,54,56,58,60,62,-1,-1,-1,-1,-1,-1,-1,-1,-1,-1,-1,-1,-1,-1,-1,-1,-1,-1,-1,-1,-1,-1,-1,-1,-1,-1,-1,-1,-1,-1,-1,-1],"split_conditions":[1E0,5.5971146E-1,7.042869E-1,1E0,3.2551312E-1,4.5005473E-1,2.213089E-1,1E0,5.392433E-1,1E0,5.686546E-1,1.775167E-1,3.775803E-1,2.7061197E-1,9.737383E-2,1E0,3.0169797E-1,6.751878E-1,6.751878E-1,1.6605386E-1,6.2231696E-1,6.274351E-1,5.418282E-1,2.375302E-1,7.4491374E-2,1E0,2.4179244E-1,7.3690283E-1,1.8934005E-1,1E0,6.805249E-2,-9.686615E-2,-7.1257606E-2,9.032102E-2,-8.338347E-2,1.2976153E-1,-3.3549987E-2,-5.606851E-2,-9.346927E-2,1.6719768E-2,-7.9140775E-2,2.6713086E-2,-5.9984356E-2,6.0778018E-2,-2.167272E-2,-1.5631013E-2,-7.956944E-2,1.2473171E-1,8.023204E-2,8.9652665E-2,-2.4507446E-3,-5.4028756E-3,-9.630711E-2,-3.8585044E-2,1.16135515E-1,1.5133908E-1,-5.0290365E-2,-9.979183E-2,-6.314478E-2,-5.8256578E-2,1.14455735E-2,8.041432E-2,-1.0556741E-2],"split_indices":[30,5,11,36,12,9,12,24,9,27,9,6,12,9,18,21,9,11,11,3,17,11,11,14,0,38,7,11,12,44,10,0,0,0,0,0,0,0,0,0,0,0,0,0,0,0,0,0,0,0,0,0,0,0,0,0,0,0,0,0,0,0,0],"split_type":[0,0,0,0,0,0,0,0,0,0,0,0,0,0,0,0,0,0,0,0,0,0,0,0,0,0,0,0,0,0,0,0,0,0,0,0,0,0,0,0,0,0,0,0,0,0,0,0,0,0,0,0,0,0,0,0,0,0,0,0,0,0,0],"sum_hessian":[9.849268E3,9.008774E3,8.4049335E2,4.610241E3,4.398533E3,4.4617838E2,3.9431494E2,4.0416184E3,5.686228E2,2.9146208E3,1.4839121E3,3.4550375E2,1.0067463E2,1.2433627E2,2.6997867E2,3.9221877E3,1.1943069E2,2.3819681E2,3.3042603E2,2.2843289E3,6.302922E2,9.9895734E2,4.8495477E2,2.997243E2,4.577946E1,5.652653E1,4.41481E1,8.074061E0,1.16262215E2,1.5790045E2,1.12078224E2,3.2572307E3,6.649571E2,4.2895077E1,7.6535614E1,6.75859E1,1.706109E2,1.4724086E2,1.8318517E2,9.148515E1,2.1928438E3,3.140954E2,3.1619675E2,4.415941E2,5.573633E2,5.4143745E1,4.30811E2,1.9358159E2,1.0614271E2,1.9527752E1,2.6251709E1,4.3316357E1,1.3210172E1,1.3401588E1,3.0746513E1,2.80381E0,5.2702513E0,7.013535E1,4.6126858E1,1.0483239E2,5.3068073E1,6.831187E1,4.376635E1],"tree_param":{"num_deleted":"0","num_feature":"45","num_nodes":"63","size_leaf_vector":"1"}},{"base_weights":[-5.460116E-1,-6.268641E-1,2.7725813E-1,-8.175324E-1,-4.3355256E-1,8.935485E-1,-9.829384E-2,-8.832229E-1,-3.6886317E-1,-6.451064E-1,-1.9575873E-1,9.5450205E-1,-9.462955E-2,-4.6755022E-1,2.530566E-1,-9.054298E-1,-1.9340634E-1,1.16771035E-1,-7.421067E-1,-7.796579E-1,-2.3120418E-1,1.2309184E-1,-5.037881E-1,1.1090648E0,6.5934265E-1,1.1226448E0,-3.9376238E-1,-6.267583E-1,1.4514466E-1,5.9380275E-1,-2.418005E-1,-9.5176384E-2,-6.826946E-2,9.303418E-2,-7.4004434E-2,1.6722535E-1,-1.7023474E-2,-7.810918E-2,1.7329818E-2,6.709062E-2,-8.021912E-2,-7.232083E-2,6.982788E-3,-7.6029755E-2,3.9970815E-2,-7.3493714E-3,-7.2154984E-2,1.1439427E-1,9.126178E-3,8.8081054E-2,1.812115E-2,7.879693E-3,1.6021188E-1,1.1217924E-1,-6.256405E-2,2.209666E-2,-6.9320135E-2,-8.056422E-2,3.537599E-2,9.14241E-2,4.6814852E-3,-9.7513504E-2,-4.206073E-3],"categories":[],"categories_nodes":[],"categories_segments":[],"categories_sizes":[],"default_left":[0,0,0,0,0,0,0,0,0,0,0,0,0,0,0,0,0,0,0,0,0,0,0,0,0,0,0,0,0,0,0,0,0,0,0,0,0,0,0,0,0,0,0,0,0,0,0,0,0,0,0,0,0,0,0,0,0,0,0,0,0,0,0],"id":8,"left_children":[1,3,5,7,9,11,13,15,17,19,21,23,25,27,29,31,33,35,37,39,41,43,45,47,49,51,53,55,57,59,61,-1,-1,-1,-1,-1,-1,-1,-1,-1,-1,-1,-1,-1,-1,-1,-1,-1,-1,-1,-1,-1,-1,-1,-1,-1,-1,-1,-1,-1,-1,-1,-1],"loss_changes":[6.232717E2,3.1383228E2,1.9399866E2,1.2612305E2,2.12914E2,1.9203995E1,6.777469E1,5.714209E1,9.971486E1,1.24604065E2,1.9602335E2,1.2908508E1,7.4865627E0,2.4927505E1,4.531189E1,3.675757E1,7.315416E1,1.0730483E2,1.1231232E1,5.57948E1,8.1675964E1,2.4006822E2,9.505673E1,6.809372E0,1.098241E1,1.9137878E0,6.419615E0,1.1547058E1,1.0862352E1,2.7813053E1,1.6063099E1,0E0,0E0,0E0,0E0,0E0,0E0,0E0,0E0,0E0,0E0,0E0,0E0,0E0,0E0,0E0,0E0,0E0,0E0,0E0,0E0,0E0,0E0,0E0,0E0,0E0,0E0,0E0,0E0,0E0,0E0,0E0,0E0],"parents":[2147483647,0,0,1,1,2,2,3,3,4,4,5,5,6,6,7,7,8,8,9,9,10,10,11,11,12,12,13,13,14,14,15,15,16,16,17,17,18,18,19,19,20,20,21,21,22,22,23,23,24,24,25,25,26,26,27,27,28,28,29,29,30,30],"right_children":[2,4,6,8,10,12,14,16,18,20,22,24,26,28,30,32,34,36,38,40,42,44,46,48,50,52,54,56,58,60,62,-1,-1,-1,-1,-1,-1,-1,-1,-1,-1,-1,-1,-1,-1,-1,-1,-1,-1,-1,-1,-1,-1,-1,-1,-1,-1,-1,-1,-1,-1,-1,-1],"split_conditions":[1E0,5.5971146E-1,6.773724E-1,1E0,2.8047597E-1,5.2980316E-1,8.6544394E-2,1E0,5.392433E-1,1E0,4.5612934E-1,1.0172478E-1,6.394446E-1,3.4064573E-1,7.3385817E-1,1E0,8.286358E-1,6.4894056E-1,9.3933254E-2,1.4156653E-1,8.588376E-2,2.1995668E-1,6.0314626E-1,2.1112318E-1,3.8915604E-1,2.9319003E-1,1.237056E-1,2.891467E-1,5.128319E-2,4.2223656E-1,1.9625387E-1,-9.5176384E-2,-6.826946E-2,9.303418E-2,-7.4004434E-2,1.6722535E-1,-1.7023474E-2,-7.810918E-2,1.7329818E-2,6.709062E-2,-8.021912E-2,-7.232083E-2,6.982788E-3,-7.6029755E-2,3.9970815E-2,-7.3493714E-3,-7.2154984E-2,1.1439427E-1,9.126178E-3,8.8081054E-2,1.812115E-2,7.879693E-3,1.6021188E-1,1.1217924E-1,-6.256405E-2,2.209666E-2,-6.9320135E-2,-8.056422E-2,3.537599E-2,9.14241E-2,4.6814852E-3,-9.7513504E-2,-4.206073E-3],"split_indices":[30,5,11,36,12,9,18,24,9,27,9,0,5,12,11,21,11,11,10,3,18,11,11,6,9,7,15,9,18,9,12,0,0,0,0,0,0,0,0,0,0,0,0,0,0,0,0,0,0,0,0,0,0,0,0,0,0,0,0,0,0,0,0],"split_type":[0,0,0,0,0,0,0,0,0,0,0,0,0,0,0,0,0,0,0,0,0,0,0,0,0,0,0,0,0,0,0,0,0,0,0,0,0,0,0,0,0,0,0,0,0,0,0,0,0,0,0,0,0,0,0,0,0,0,0,0,0,0,0],"sum_hessian":[9.359972E3,8.523159E3,8.36812E2,4.2892896E3,4.23387E3,3.163289E2,5.204831E2,3.7406462E3,5.4864307E2,2.2396487E3,1.9942212E3,2.9798257E2,1.8346308E1,2.5361371E2,2.668694E2,3.6236785E3,1.1696781E2,2.387231E2,3.0991998E2,1.6895314E3,5.5011743E2,9.801935E2,1.0140277E3,1.9376064E2,1.0422195E2,3.076002E0,1.5270306E1,2.0128665E2,5.232706E1,1.5792575E2,1.0894365E2,2.9969673E3,6.267111E2,3.8048294E1,7.891952E1,3.6434242E1,2.0228885E2,2.9740103E2,1.2518947E1,2.540382E1,1.6641276E3,2.0828914E2,3.418283E2,2.3332112E2,7.468724E2,3.4118597E2,6.7284174E2,1.8722105E2,6.539587E0,7.065344E1,3.356851E1,1.3346714E0,1.7413305E0,1.5170459E0,1.3753261E1,1.4460786E1,1.8682587E2,8.900444E0,4.3426617E1,9.9162575E1,5.8763172E1,2.2490154E1,8.645349E1],"tree_param":{"num_deleted":"0","num_feature":"45","num_nodes":"63","size_leaf_vector":"1"}},{"base_weights":[-5.18947E-1,-7.9361326E-1,-2.9544517E-1,-8.6206025E-1,-3.4537852E-1,-6.0676724E-1,-9.798281E-2,-8.852579E-1,-1.8024789E-1,1.0797982E0,-4.6269098E-1,-4.5665702E-1,-8.770282E-1,1.910803E-1,-4.4034415E-1,-9.348583E-1,-6.5285146E-1,7.562914E-1,-7.9493576E-1,1.3619465E0,-9.161156E-2,-9.404701E-2,-7.137839E-1,-7.5165683E-1,-2.4429817E-1,1.525508E0,-9.133879E-1,-6.9191813E-1,4.1659325E-1,2.0271453E-1,-5.875261E-1,-9.404649E-2,6.0726058E-2,-9.024483E-2,-3.3302945E-3,1.4597185E-1,-7.2530925E-2,-1.005471E-1,8.33199E-3,5.2771617E-2,1.6252285E-1,1.5648773E-1,-3.0034358E-2,-8.561803E-2,-4.2009693E-2,-9.127374E-2,-3.6386337E-2,-4.8095096E-2,6.8721585E-3,3.8084355E-1,2.7853457E-2,-9.922943E-2,-5.9586316E-2,-8.4208064E-2,-6.1921137E-3,8.994373E-2,7.9536745E-3,1.5797912E-1,-6.168306E-2,-6.756059E-2,-8.833163E-3],"categories":[],"categories_nodes":[],"categories_segments":[],"categories_sizes":[],"default_left":[0,0,0,0,0,0,0,0,0,0,0,0,0,0,0,0,0,0,0,0,0,0,0,0,0,0,0,0,0,0,0,0,0,0,0,0,0,0,0,0,0,0,0,0,0,0,0,0,0,0,0,0,0,0,0,0,0,0,0,0,0],"id":9,"left_children":[1,3,5,7,9,11,13,15,17,19,21,23,25,27,29,31,33,35,37,39,-1,41,43,45,47,49,51,53,55,57,59,-1,-1,-1,-1,-1,-1,-1,-1,-1,-1,-1,-1,-1,-1,-1,-1,-1,-1,-1,-1,-1,-1,-1,-1,-1,-1,-1,-1,-1,-1],"loss_changes":[5.4652124E2,1.2227905E2,3.01916E2,5.4650146E1,8.92681E1,7.693475E1,2.9766373E2,3.80188E1,6.696524E1,2.4156452E1,4.5405846E1,7.6723206E1,6.0762146E1,3.250809E2,1.3043506E2,2.4428223E1,9.16255E1,4.920101E1,1.3043026E1,7.058937E0,0E0,6.8981476E1,1.1854675E1,3.1735382E1,5.3019344E1,2.8848597E1,1.6198364E1,3.1374481E1,2.1147835E2,2.912269E2,4.9215607E1,0E0,0E0,0E0,0E0,0E0,0E0,0E0,0E0,0E0,0E0,0E0,0E0,0E0,0E0,0E0,0E0,0E0,0E0,0E0,0E0,0E0,0E0,0E0,0E0,0E0,0E0,0E0,0E0,0E0,0E0],"parents":[2147483647,0,0,1,1,2,2,3,3,4,4,5,5,6,6,7,7,8,8,9,9,10,10,11,11,12,12,13,13,14,14,15,15,16,16,17,17,18,18,19,19,21,21,22,22,23,23,24,24,25,25,26,26,27,27,28,28,29,29,30,30],"right_children":[2,4,6,8,10,12,14,16,18,20,22,24,26,28,30,32,34,36,38,40,-1,42,44,46,48,50,52,54,56,58,60,-1,-1,-1,-1,-1,-1,-1,-1,-1,-1,-1,-1,-1,-1,-1,-1,-1,-1,-1,-1,-1,-1,-1,-1,-1,-1,-1,-1,-1,-1],"split_conditions":[5.5971146E-1,1E0,2.4462664E-1,1E0,3.8915604E-1,3.2735863E-1,4.3753493E-1,1E0,3.0169797E-1,7.4373096E-1,5.392433E-1,2.2458208E-1,5.926106E-1,2.1995668E-1,5.851053E-1,1E0,1.0495213E-1,8.5462993E-1,2.7214602E-1,4.75908E-2,-9.161156E-2,6.454439E-1,1E0,1.1581202E-1,1.9049798E-1,2.598852E-1,1E0,1.2268483E-1,6.579318E-1,6.0596436E-1,1E0,-9.404649E-2,6.0726058E-2,-9.024483E-2,-3.3302945E-3,1.4597185E-1,-7.2530925E-2,-1.005471E-1,8.33199E-3,5.2771617E-2,1.6252285E-1,1.5648773E-1,-3.0034358E-2,-8.561803E-2,-4.2009693E-2,-9.127374E-2,-3.6386337E-2,-4.8095096E-2,6.8721585E-3,3.8084355E-1,2.7853457E-2,-9.922943E-2,-5.9586316E-2,-8.4208064E-2,-6.1921137E-3,8.994373E-2,7.9536745E-3,1.5797912E-1,-6.168306E-2,-6.756059E-2,-8.833163E-3],"split_indices":[5,36,12,24,9,9,9,21,9,11,9,11,11,11,11,27,18,11,12,10,0,11,44,18,12,17,30,18,11,9,30,0,0,0,0,0,0,0,0,0,0,0,0,0,0,0,0,0,0,0,0,0,0,0,0,0,0,0,0,0,0],"split_type":[0,0,0,0,0,0,0,0,0,0,0,0,0,0,0,0,0,0,0,0,0,0,0,0,0,0,0,0,0,0,0,0,0,0,0,0,0,0,0,0,0,0,0,0,0,0,0,0,0,0,0,0,0,0,0,0,0,0,0,0,0],"sum_hessian":[8.905501E3,3.9942856E3,4.911215E3,3.464345E3,5.2994055E2,1.9052682E3,3.0059468E3,3.3500654E3,1.1427952E2,3.968012E1,4.9026047E2,1.2266456E3,6.7862256E2,1.6300782E3,1.3758685E3,2.7583525E3,5.917129E2,4.5193016E1,6.90865E1,3.504385E1,4.6362705E0,1.9919109E2,2.9106937E2,5.12359E2,7.142867E2,9.506501E0,6.69116E2,3.3119855E2,1.2988796E3,2.5618457E2,1.119684E3,2.7487495E3,9.603197E0,4.2146222E2,1.7025069E2,3.065402E1,1.4538995E1,5.561068E1,1.3475825E1,9.127383E0,2.5916466E1,2.1302496E1,1.778886E2,1.9473521E2,9.633414E1,3.6103824E2,1.5132076E2,4.0645636E2,3.078303E2,2.6326215E0,6.8738794E0,5.342318E2,1.3488422E2,2.671787E2,6.401982E1,5.332762E2,7.6560345E2,9.523469E1,1.609499E2,9.5145264E2,1.6823137E2],"tree_param":{"num_deleted":"0","num_feature":"45","num_nodes":"61","size_leaf_vector":"1"}},{"base_weights":[-4.920283E-1,-7.6994026E-1,-2.752846E-1,-8.4090394E-1,-3.2370415E-1,-3.8404956E-1,2.4603793E-1,-8.648971E-1,-1.7050815E-1,9.434164E-2,-6.855659E-1,-5.586274E-1,-8.5801475E-2,5.702368E-1,-3.0603108E-1,-9.1784984E-1,-6.2351537E-1,6.589294E-1,-7.682092E-1,6.364055E-1,-5.0946355E-1,-3.4094024E-1,-8.197567E-1,2.528305E-1,-6.0561705E-1,2.7222607E-1,-6.337051E-1,8.6302805E-1,1.97281E-1,-4.9068266E-1,3.0188575E-1,-9.238176E-2,5.2666157E-2,-9.3180746E-2,-1.1561901E-2,1.2708424E-1,-6.102551E-2,-9.889429E-2,7.5123324E-3,1.6679985E-2,1.4948858E-1,1.1179496E-2,-6.989896E-2,1.4953821E-2,-6.465637E-2,-8.5361555E-2,2.6140297E-2,1.3383341E-1,-2.1573963E-2,-8.670791E-2,-5.212408E-2,9.644998E-3,1.2553674E-1,1.24747194E-1,-7.408879E-2,7.533572E-2,1.2708887E-1,6.986107E-2,-3.8910303E-3,-9.299978E-2,-3.5549648E-2,-6.37654E-3,1.0233847E-1],"categories":[],"categories_nodes":[],"categories_segments":[],"categories_sizes":[],"default_left":[0,0,0,0,0,0,0,0,0,0,0,0,0,0,0,0,0,0,0,0,0,0,0,0,0,0,0,0,0,0,0,0,0,0,0,0,0,0,0,0,0,0,0,0,0,0,0,0,0,0,0,0,0,0,0,0,0,0,0,0,0,0,0],"id":10,"left_children":[1,3,5,7,9,11,13,15,17,19,21,23,25,27,29,31,33,35,37,39,41,43,45,47,49,51,53,55,57,59,61,-1,-1,-1,-1,-1,-1,-1,-1,-1,-1,-1,-1,-1,-1,-1,-1,-1,-1,-1,-1,-1,-1,-1,-1,-1,-1,-1,-1,-1,-1,-1,-1],"loss_changes":[5.117478E2,1.17640625E2,2.7094095E2,5.1518066E1,7.75974E1,2.0575098E2,1.4786128E2,3.906201E1,5.6145325E1,7.844522E1,1.2430954E1,9.521106E1,2.866801E2,5.6636536E1,3.4490738E1,2.2389404E1,8.7730286E1,3.7697968E1,1.2302444E1,5.063434E1,1.3438198E1,1.1899832E1,7.4385986E0,7.005637E1,5.154248E1,1.5265103E2,1.1736841E2,1.2065079E1,2.7271427E1,1.36284485E1,1.9032793E1,0E0,0E0,0E0,0E0,0E0,0E0,0E0,0E0,0E0,0E0,0E0,0E0,0E0,0E0,0E0,0E0,0E0,0E0,0E0,0E0,0E0,0E0,0E0,0E0,0E0,0E0,0E0,0E0,0E0,0E0,0E0,0E0],"parents":[2147483647,0,0,1,1,2,2,3,3,4,4,5,5,6,6,7,7,8,8,9,9,10,10,11,11,12,12,13,13,14,14,15,15,16,16,17,17,18,18,19,19,20,20,21,21,22,22,23,23,24,24,25,25,26,26,27,27,28,28,29,29,30,30],"right_children":[2,4,6,8,10,12,14,16,18,20,22,24,26,28,30,32,34,36,38,40,42,44,46,48,50,52,54,56,58,60,62,-1,-1,-1,-1,-1,-1,-1,-1,-1,-1,-1,-1,-1,-1,-1,-1,-1,-1,-1,-1,-1,-1,-1,-1,-1,-1,-1,-1,-1,-1,-1,-1],"split_conditions":[5.5971146E-1,1E0,1E0,1E0,5.392433E-1,1.1627627E-1,7.157136E-1,1E0,3.0169797E-1,7.0122313E-1,6.579318E-1,1.6936116E-1,6.729173E-1,3.8915604E-1,1.1399584E-1,1E0,9.665427E-2,8.491635E-1,2.7214602E-1,1E0,4.282784E-1,6.382623E-1,9.3933254E-2,5.899977E-1,2.1995668E-1,1E0,2.535664E-1,1.1533413E-1,6.524199E-1,1.9397315E-1,1E0,-9.238176E-2,5.2666157E-2,-9.3180746E-2,-1.1561901E-2,1.2708424E-1,-6.102551E-2,-9.889429E-2,7.5123324E-3,1.6679985E-2,1.4948858E-1,1.1179496E-2,-6.989896E-2,1.4953821E-2,-6.465637E-2,-8.5361555E-2,2.6140297E-2,1.3383341E-1,-2.1573963E-2,-8.670791E-2,-5.212408E-2,9.644998E-3,1.2553674E-1,1.24747194E-1,-7.408879E-2,7.533572E-2,1.2708887E-1,6.986107E-2,-3.8910303E-3,-9.299978E-2,-3.5549648E-2,-6.37654E-3,1.0233847E-1],"split_indices":[5,36,30,24,9,18,11,21,9,11,11,3,11,9,18,27,18,11,12,44,9,9,10,11,11,29,9,18,11,12,44,0,0,0,0,0,0,0,0,0,0,0,0,0,0,0,0,0,0,0,0,0,0,0,0,0,0,0,0,0,0,0,0],"split_type":[0,0,0,0,0,0,0,0,0,0,0,0,0,0,0,0,0,0,0,0,0,0,0,0,0,0,0,0,0,0,0,0,0,0,0,0,0,0,0,0,0,0,0,0,0,0,0,0,0,0,0,0,0,0,0,0,0,0,0,0,0,0,0],"sum_hessian":[8.498275E3,3.7225789E3,4.7756963E3,3.2110498E3,5.1152908E2,3.9515393E3,8.241572E2,3.0998188E3,1.11230934E2,2.3768243E2,2.7384662E2,2.4919922E3,1.459547E3,5.1921735E2,3.0493988E2,2.5398418E3,5.59977E2,4.6541817E1,6.468912E1,1.25216125E2,1.1246631E2,7.7739235E1,1.9610739E2,1.3616656E2,2.3558257E3,8.830326E2,5.765144E2,2.901328E2,2.2908455E2,2.340433E2,7.089659E1,2.5297512E3,1.0090671E1,3.4794214E2,2.1203485E2,3.140108E1,1.5140737E1,5.1132935E1,1.3556184E1,8.171222E1,4.3503906E1,2.638559E1,8.608073E1,3.004015E1,4.769909E1,1.9035645E2,5.7509527E0,4.0496037E1,9.567053E1,5.7250183E2,1.7833239E3,7.500322E2,1.3300035E2,3.0503614E1,5.460108E2,2.3089409E2,5.923872E1,7.27374E1,1.5634715E2,5.3689365E1,1.8035394E2,4.7656296E1,2.3240294E1],"tree_param":{"num_deleted":"0","num_feature":"45","num_nodes":"63","size_leaf_vector":"1"}},{"base_weights":[-4.6567476E-1,-7.458921E-1,-2.559996E-1,-8.194675E-1,-3.0291134E-1,-5.5708945E-1,-7.529212E-2,-8.441958E-1,-1.6113265E-1,8.355824E-2,-6.5730906E-1,-4.0507513E-1,-8.435499E-1,1.891137E-1,-4.0081745E-1,-9.0059197E-1,-5.9441066E-1,5.8029693E-1,-7.415882E-1,5.5273765E-1,-4.7995633E-1,-8.1448185E-1,-3.460394E-1,-7.0394707E-1,-2.0439845E-1,6.139202E-1,-9.054231E-1,-6.3449174E-1,3.7642714E-1,7.514746E-2,-5.8229345E-1,-9.224315E-2,-4.8112612E-2,-9.131219E-2,-1.0518896E-2,1.0445964E-1,-7.217487E-2,-9.727331E-2,6.776991E-3,1.4892346E-2,1.24123834E-1,1.0020553E-2,-6.687197E-2,-8.403338E-2,6.6444054E-2,1.03727594E-1,-4.865585E-2,-8.7402284E-2,-3.444932E-2,-8.26998E-3,-8.256256E-2,1.24461226E-1,-1.6960537E-2,-9.765845E-2,-6.2213935E-2,-8.707855E-2,-2.4927517E-2,7.652148E-2,9.025126E-3,1.3371572E-1,-5.4630954E-2,-6.833939E-2,-9.7918995E-3],"categories":[],"categories_nodes":[],"categories_segments":[],"categories_sizes":[],"default_left":[0,0,0,0,0,0,0,0,0,0,0,0,0,0,0,0,0,0,0,0,0,0,0,0,0,0,0,0,0,0,0,0,0,0,0,0,0,0,0,0,0,0,0,0,0,0,0,0,0,0,0,0,0,0,0,0,0,0,0,0,0,0,0],"id":11,"left_children":[1,3,5,7,9,11,13,15,17,19,21,23,25,27,29,31,33,35,37,39,41,43,45,47,49,51,53,55,57,59,61,-1,-1,-1,-1,-1,-1,-1,-1,-1,-1,-1,-1,-1,-1,-1,-1,-1,-1,-1,-1,-1,-1,-1,-1,-1,-1,-1,-1,-1,-1,-1,-1],"loss_changes":[4.770172E2,1.13034546E2,2.5281488E2,4.8378296E1,6.8078186E1,7.555524E1,2.501465E2,3.9921875E1,4.7392483E1,6.331233E1,1.2398453E1,6.826465E1,5.4962585E1,2.4767467E2,1.1255025E2,2.1002197E1,8.2843414E1,3.0060429E1,1.1598175E1,3.6121986E1,1.1990274E1,7.114769E0,1.7746807E1,2.768518E1,5.162901E1,1.2646945E1,1.1067596E1,2.6867882E1,1.4538686E2,2.8340607E2,4.611679E1,0E0,0E0,0E0,0E0,0E0,0E0,0E0,0E0,0E0,0E0,0E0,0E0,0E0,0E0,0E0,0E0,0E0,0E0,0E0,0E0,0E0,0E0,0E0,0E0,0E0,0E0,0E0,0E0,0E0,0E0,0E0,0E0],"parents":[2147483647,0,0,1,1,2,2,3,3,4,4,5,5,6,6,7,7,8,8,9,9,10,10,11,11,12,12,13,13,14,14,15,15,16,16,17,17,18,18,19,19,20,20,21,21,22,22,23,23,24,24,25,25,26,26,27,27,28,28,29,29,30,30],"right_children":[2,4,6,8,10,12,14,16,18,20,22,24,26,28,30,32,34,36,38,40,42,44,46,48,50,52,54,56,58,60,62,-1,-1,-1,-1,-1,-1,-1,-1,-1,-1,-1,-1,-1,-1,-1,-1,-1,-1,-1,-1,-1,-1,-1,-1,-1,-1,-1,-1,-1,-1,-1,-1],"split_conditions":[5.5971146E-1,1E0,2.4462664E-1,1E0,5.392433E-1,3.2735863E-1,4.3753493E-1,1E0,3.0169797E-1,7.0122313E-1,1E0,2.2458208E-1,6.41757E-1,2.1995668E-1,6.0314626E-1,4.1292E-1,9.665427E-2,8.5968053E-1,2.7214602E-1,1E0,4.282784E-1,1.5702222E-1,6.241715E-1,1.1581202E-1,8.013927E-1,6.414508E-1,1E0,1.0121705E-1,6.579318E-1,5.754502E-1,1E0,-9.224315E-2,-4.8112612E-2,-9.131219E-2,-1.0518896E-2,1.0445964E-1,-7.217487E-2,-9.727331E-2,6.776991E-3,1.4892346E-2,1.24123834E-1,1.0020553E-2,-6.687197E-2,-8.403338E-2,6.6444054E-2,1.03727594E-1,-4.865585E-2,-8.7402284E-2,-3.444932E-2,-8.26998E-3,-8.256256E-2,1.24461226E-1,-1.6960537E-2,-9.765845E-2,-6.2213935E-2,-8.707855E-2,-2.4927517E-2,7.652148E-2,9.025126E-3,1.3371572E-1,-5.4630954E-2,-6.833939E-2,-9.7918995E-3],"split_indices":[5,36,12,24,9,9,9,21,9,11,44,11,11,11,11,3,18,11,12,44,9,18,11,18,11,5,30,18,11,9,30,0,0,0,0,0,0,0,0,0,0,0,0,0,0,0,0,0,0,0,0,0,0,0,0,0,0,0,0,0,0,0,0],"split_type":[0,0,0,0,0,0,0,0,0,0,0,0,0,0,0,0,0,0,0,0,0,0,0,0,0,0,0,0,0,0,0,0,0,0,0,0,0,0,0,0,0,0,0,0,0,0,0,0,0,0,0,0,0,0,0,0,0,0,0,0,0,0,0],"sum_hessian":[8.121053E3,3.4747356E3,4.6463174E3,2.9790847E3,4.9565097E2,1.7419105E3,2.904407E3,2.8709636E3,1.0812117E2,2.3746277E2,2.581882E2,1.1395867E3,6.023239E2,1.6028895E3,1.3015175E3,2.340029E3,5.309345E2,4.7477413E1,6.0643753E1,1.2958777E2,1.0787501E2,1.704861E2,8.770209E1,4.5678275E2,6.828039E2,2.4165472E1,5.7815845E2,2.965575E2,1.306332E3,3.5942468E2,9.420928E2,2.223085E3,1.1694402E2,3.2096817E2,2.0996634E2,3.5143307E1,1.2334109E1,4.701489E1,1.3628864E1,8.244755E1,4.7140217E1,2.6597395E1,8.127761E1,1.6798154E2,2.5045617E0,7.4988875E0,8.02032E1,3.0910028E2,1.4768246E2,5.719013E2,1.10902596E2,1.3062473E1,1.1102999E1,4.6012653E2,1.18031944E2,1.830272E2,1.1353027E2,5.531583E2,7.5317377E2,1.1821355E2,2.4121112E2,7.790712E2,1.6302153E2],"tree_param":{"num_deleted":"0","num_feature":"45","num_nodes":"63","size_leaf_vector":"1"}},{"base_weights":[-4.4010818E-1,-7.2155637E-1,-2.3811229E-1,-7.9762745E-1,-2.828662E-1,-5.282952E-1,-6.997751E-2,-8.2305044E-1,-1.5233852E-1,1.9574174E-1,-5.411679E-1,-3.920575E-1,-8.518799E-1,1.6844422E-1,-3.756237E-1,-9.0294945E-1,-6.2728554E-1,5.1289254E-1,-7.1501034E-1,1.3242509E0,-1.7158358E-3,-2.2146365E-1,-7.717492E-1,-5.7563734E-1,-1.1455547E-1,3.1819692E0,-9.2779803E-1,-6.051769E-1,3.3217314E-1,6.6095054E-1,-4.5317116E-1,-9.265975E-2,-5.3031374E-2,-8.591204E-2,-1.0918378E-2,8.692374E-2,-8.12233E-2,-9.56693E-2,6.1166044E-3,-1.8825663E-2,1.6181098E-1,3.3331364E-2,-5.8238447E-2,5.2068647E-2,-5.285429E-2,-8.287263E-2,1.0620865E-2,4.9924077E-3,-6.801152E-2,-3.2149363E-2,7.618897E-2,4.0700623E-1,-3.308426E-2,-4.920484E-2,-9.669103E-2,-7.66735E-2,-4.1690166E-3,7.138479E-2,8.496841E-3,1.4521101E-1,-6.1802845E-2,-6.75488E-2,-2.2423228E-2],"categories":[],"categories_nodes":[],"categories_segments":[],"categories_sizes":[],"default_left":[0,0,0,0,0,0,0,0,0,0,0,0,0,0,0,0,0,0,0,0,0,0,0,0,0,0,0,0,0,0,0,0,0,0,0,0,0,0,0,0,0,0,0,0,0,0,0,0,0,0,0,0,0,0,0,0,0,0,0,0,0,0,0],"id":12,"left_children":[1,3,5,7,9,11,13,15,17,19,21,23,25,27,29,31,33,35,37,39,41,43,45,47,49,51,53,55,57,59,61,-1,-1,-1,-1,-1,-1,-1,-1,-1,-1,-1,-1,-1,-1,-1,-1,-1,-1,-1,-1,-1,-1,-1,-1,-1,-1,-1,-1,-1,-1,-1,-1],"loss_changes":[4.4195483E2,1.0819531E2,2.2093161E2,4.528784E1,5.965242E1,7.290408E1,2.0911108E2,4.108777E1,4.0101414E1,3.7787834E1,2.2910141E1,5.958658E1,1.5342972E2,2.0441547E2,1.01375626E2,1.6154053E1,9.301221E1,2.3950974E1,1.0925261E1,1.1528599E1,2.8464119E1,3.049415E1,9.167404E0,4.607727E1,8.502843E1,3.0367867E1,7.757141E0,2.563739E1,1.2554817E2,8.987008E1,5.942296E1,0E0,0E0,0E0,0E0,0E0,0E0,0E0,0E0,0E0,0E0,0E0,0E0,0E0,0E0,0E0,0E0,0E0,0E0,0E0,0E0,0E0,0E0,0E0,0E0,0E0,0E0,0E0,0E0,0E0,0E0,0E0,0E0],"parents":[2147483647,0,0,1,1,2,2,3,3,4,4,5,5,6,6,7,7,8,8,9,9,10,10,11,11,12,12,13,13,14,14,15,15,16,16,17,17,18,18,19,19,20,20,21,21,22,22,23,23,24,24,25,25,26,26,27,27,28,28,29,29,30,30],"right_children":[2,4,6,8,10,12,14,16,18,20,22,24,26,28,30,32,34,36,38,40,42,44,46,48,50,52,54,56,58,60,62,-1,-1,-1,-1,-1,-1,-1,-1,-1,-1,-1,-1,-1,-1,-1,-1,-1,-1,-1,-1,-1,-1,-1,-1,-1,-1,-1,-1,-1,-1,-1,-1],"split_conditions":[5.5971146E-1,1E0,2.4462664E-1,1E0,5.017353E-1,7.49661E-1,4.3753493E-1,5.312363E-1,3.0169797E-1,3.6524048E-1,6.751878E-1,1.0611687E-1,2.0690262E-1,2.1995668E-1,5.418282E-1,4.0330994E-1,1.0495213E-1,8.660935E-1,2.7214602E-1,2.5503007E-1,7.095097E-1,5.85706E-1,1.3206401E-1,3.2998726E-1,1E0,8.286358E-1,2.7061197E-1,1.2268483E-1,1.5274735E-1,6.738529E-1,3.775803E-1,-9.265975E-2,-5.3031374E-2,-8.591204E-2,-1.0918378E-2,8.692374E-2,-8.12233E-2,-9.56693E-2,6.1166044E-3,-1.8825663E-2,1.6181098E-1,3.3331364E-2,-5.8238447E-2,5.2068647E-2,-5.285429E-2,-8.287263E-2,1.0620865E-2,4.9924077E-3,-6.801152E-2,-3.2149363E-2,7.618897E-2,4.0700623E-1,-3.308426E-2,-4.920484E-2,-9.669103E-2,-7.66735E-2,-4.1690166E-3,7.138479E-2,8.496841E-3,1.4521101E-1,-6.1802845E-2,-6.75488E-2,-2.2423228E-2],"split_indices":[5,36,12,24,9,11,9,17,9,5,11,18,9,11,11,3,18,11,12,5,11,9,18,3,44,11,9,18,6,9,12,0,0,0,0,0,0,0,0,0,0,0,0,0,0,0,0,0,0,0,0,0,0,0,0,0,0,0,0,0,0,0,0],"split_type":[0,0,0,0,0,0,0,0,0,0,0,0,0,0,0,0,0,0,0,0,0,0,0,0,0,0,0,0,0,0,0,0,0,0,0,0,0,0,0,0,0,0,0,0,0,0,0,0,0,0,0,0,0,0,0,0,0,0,0,0,0,0,0],"sum_hessian":[7.775885E3,3.2478982E3,4.527987E3,2.7672288E3,4.8066937E2,1.6603152E3,2.8676714E3,2.6620735E3,1.0515541E2,1.6856918E2,3.1210016E2,1.1699479E3,4.9036737E2,1.6112512E3,1.2564203E3,1.8879269E3,7.741466E2,4.822675E1,5.692866E1,2.4252848E1,1.4431635E2,1.3159805E2,1.8050212E2,7.034862E2,4.664616E2,8.302591E0,4.8206476E2,2.8096973E2,1.3302815E3,8.692836E1,1.1694918E3,1.7738678E3,1.14059105E2,5.3437274E2,2.3977383E2,3.8277443E1,9.9493065E0,4.3234047E1,1.3694613E1,4.0039034E0,2.0248943E1,9.178497E1,5.253137E1,3.8311375E1,9.3286674E1,1.6955455E2,1.0947564E1,1.0075249E2,6.027337E2,3.7787454E2,8.8587074E1,6.5005255E0,1.8020663E0,4.082406E1,4.4124072E2,2.1808235E2,6.2887394E1,5.221752E2,8.0810626E2,5.36227E1,3.330566E1,5.923374E2,5.771545E2],"tree_param":{"num_deleted":"0","num_feature":"45","num_nodes":"63","size_leaf_vector":"1"}},{"base_weights":[-4.1499487E-1,-6.9690865E-1,-2.2093587E-1,-7.753047E-1,-2.638955E-1,-5.387285E-1,-8.330543E-2,-9.182909E-1,-6.498284E-1,8.027032E-1,-3.702769E-1,-4.013646E-1,-8.6329514E-1,1.3634235E-1,-3.517744E-1,-9.3033177E-1,5.9433913E-1,6.7157865E-1,-6.884423E-1,1.0125301E0,-8.918298E-2,-5.922958E-1,4.1294165E-2,4.8331648E-1,-4.5173916E-1,6.141991E-1,-9.1445E-1,-5.8381647E-1,3.0517426E-1,1.0103887E-1,-5.318703E-1,-9.797107E-2,-6.553988E-2,3.5695544E-1,-1.9497126E-2,3.6359486E-1,-3.201301E-2,-7.3348664E-2,-1.4403767E-2,1.4012493E-1,5.7203706E-2,-6.554129E-2,1.64618E-2,1.2953568E-1,-1.4848254E-2,2.6923096E-1,1.5425569E-2,-6.167934E-2,-2.4090024E-2,1.2427608E-1,-4.6017136E-2,-9.795377E-2,-6.500407E-2,-8.344986E-2,-2.1309834E-2,3.7633535E-2,-8.4458165E-2,1.0375237E-1,-5.4737605E-2,-6.504259E-2,-4.8104436E-3],"categories":[],"categories_nodes":[],"categories_segments":[],"categories_sizes":[],"default_left":[0,0,0,0,0,0,0,0,0,0,0,0,0,0,0,0,0,0,0,0,0,0,0,0,0,0,0,0,0,0,0,0,0,0,0,0,0,0,0,0,0,0,0,0,0,0,0,0,0,0,0,0,0,0,0,0,0,0,0,0,0],"id":13,"left_children":[1,3,5,7,9,11,13,15,17,19,21,23,25,27,29,31,33,35,37,39,-1,41,43,45,47,49,51,53,55,57,59,-1,-1,-1,-1,-1,-1,-1,-1,-1,-1,-1,-1,-1,-1,-1,-1,-1,-1,-1,-1,-1,-1,-1,-1,-1,-1,-1,-1,-1,-1],"loss_changes":[4.0806348E2,1.0305286E2,1.9332004E2,4.5601807E1,5.3376987E1,5.9210907E1,1.8203297E2,2.2428833E1,7.061511E1,1.6100348E1,3.8956356E1,4.2131317E1,3.0519958E1,2.0664592E2,1.1332721E2,1.5540283E1,2.4404167E1,1.1740909E2,3.266449E1,5.790901E0,0E0,1.3333107E1,3.59464E1,3.6765274E1,3.0834824E1,9.933334E0,5.9634094E0,2.9824554E1,1.1292236E2,2.410838E2,5.6973328E1,0E0,0E0,0E0,0E0,0E0,0E0,0E0,0E0,0E0,0E0,0E0,0E0,0E0,0E0,0E0,0E0,0E0,0E0,0E0,0E0,0E0,0E0,0E0,0E0,0E0,0E0,0E0,0E0,0E0,0E0],"parents":[2147483647,0,0,1,1,2,2,3,3,4,4,5,5,6,6,7,7,8,8,9,9,10,10,11,11,12,12,13,13,14,14,15,15,16,16,17,17,18,18,19,19,21,21,22,22,23,23,24,24,25,25,26,26,27,27,28,28,29,29,30,30],"right_children":[2,4,6,8,10,12,14,16,18,20,22,24,26,28,30,32,34,36,38,40,-1,42,44,46,48,50,52,54,56,58,60,-1,-1,-1,-1,-1,-1,-1,-1,-1,-1,-1,-1,-1,-1,-1,-1,-1,-1,-1,-1,-1,-1,-1,-1,-1,-1,-1,-1,-1,-1],"split_conditions":[5.5971146E-1,1E0,2.267907E-1,2.9708186E-1,3.8915604E-1,3.3522686E-1,4.2523074E-1,1E0,9.156739E-2,7.4373096E-1,1E0,1.9041237E-1,6.41757E-1,2.1995668E-1,6.073042E-1,1E0,5.2610433E-1,6.3347954E-1,1E0,1.3791265E-1,-8.918298E-2,1.3206401E-1,6.309812E-1,6.1252135E-1,1.0611687E-1,4.3439764E-1,1E0,1.0121705E-1,1E0,5.821338E-1,1E0,-9.797107E-2,-6.553988E-2,3.5695544E-1,-1.9497126E-2,3.6359486E-1,-3.201301E-2,-7.3348664E-2,-1.4403767E-2,1.4012493E-1,5.7203706E-2,-6.554129E-2,1.64618E-2,1.2953568E-1,-1.4848254E-2,2.6923096E-1,1.5425569E-2,-6.167934E-2,-2.4090024E-2,1.2427608E-1,-4.6017136E-2,-9.795377E-2,-6.500407E-2,-8.344986E-2,-2.1309834E-2,3.7633535E-2,-8.4458165E-2,1.0375237E-1,-5.4737605E-2,-6.504259E-2,-4.8104436E-3],"split_indices":[5,36,12,11,9,9,9,27,9,11,44,3,11,11,11,33,5,17,24,15,0,18,11,11,18,9,30,18,23,9,30,0,0,0,0,0,0,0,0,0,0,0,0,0,0,0,0,0,0,0,0,0,0,0,0,0,0,0,0,0,0],"split_type":[0,0,0,0,0,0,0,0,0,0,0,0,0,0,0,0,0,0,0,0,0,0,0,0,0,0,0,0,0,0,0,0,0,0,0,0,0,0,0,0,0,0,0,0,0,0,0,0,0,0,0,0,0,0,0,0,0,0,0,0,0],"sum_hessian":[7.460762E3,3.0407734E3,4.419989E3,2.5739714E3,4.6680212E2,1.3348552E3,3.0851335E3,1.2000913E3,1.3738801E3,4.1742176E1,4.2505994E2,9.3948193E2,3.953733E2,1.6971241E3,1.3880094E3,1.1909956E3,9.095608E0,3.8541965E1,1.3353381E3,3.7501053E1,4.241124E0,2.7582767E2,1.4923228E2,5.0149998E1,8.893319E2,1.286249E1,3.825108E2,3.2184106E2,1.3752831E3,3.9508655E2,9.929229E2,1.0074846E3,1.8351103E2,1.168544E0,7.927064E0,8.993291E0,2.9548674E1,1.2329739E3,1.0236429E2,1.8762619E1,1.8738432E1,2.5472122E2,2.110643E1,1.884921E1,1.3038307E2,5.570863E0,4.4579136E1,4.9774738E2,3.9158453E2,8.015991E0,4.8464985E0,3.047806E2,7.773019E1,1.9125923E2,1.3058185E2,1.2957583E3,7.9524796E1,1.6139249E2,2.3369406E2,7.9720807E2,1.9571484E2],"tree_param":{"num_deleted":"0","num_feature":"45","num_nodes":"61","size_leaf_vector":"1"}},{"base_weights":[-3.904848E-1,-6.68014E-1,-2.0258355E-1,-7.482556E-1,-2.4187788E-1,-9.3718275E-2,-5.8399534E-1,-9.1962814E-1,-6.3216484E-1,9.59218E-2,-5.8967644E-1,-4.4386744E-1,3.4540337E-2,-9.669808E-2,-6.891931E-1,-9.8827636E-1,-7.854014E-1,-7.6561147E-1,-3.6002502E-1,4.6479833E-1,-4.1192234E-1,-3.387915E-1,-8.1289285E-1,-3.0639437E-1,-8.300662E-1,2.687879E-1,-2.0544598E-1,2.297919E0,-2.3231219E-1,-7.9387003E-1,-4.689977E-1,-9.912619E-2,2.2983901E-2,-9.2633E-2,-4.146256E-2,-8.0826275E-2,-3.3458434E-2,-6.90276E-2,9.276826E-3,6.897366E-2,-3.198783E-2,1.2475372E-2,-6.038946E-2,5.2006114E-3,-6.617504E-2,-8.874543E-2,-1.4924622E-2,-4.512171E-2,1.6253472E-3,7.275437E-2,-8.921494E-2,-4.914186E-2,4.519315E-2,2.4429172E-2,-4.442139E-2,-1.2895042E-2,2.8361326E-1,8.6121105E-2,-3.9704036E-2,-8.490197E-2,-2.7031666E-2,-2.2602718E-2,-7.260781E-2],"categories":[],"categories_nodes":[],"categories_segments":[],"categories_sizes":[],"default_left":[0,0,0,0,0,0,0,0,0,0,0,0,0,0,0,0,0,0,0,0,0,0,0,0,0,0,0,0,0,0,0,0,0,0,0,0,0,0,0,0,0,0,0,0,0,0,0,0,0,0,0,0,0,0,0,0,0,0,0,0,0,0,0],"id":14,"left_children":[1,3,5,7,9,11,13,15,17,19,21,23,25,27,29,31,33,35,37,39,41,43,45,47,49,51,53,55,57,59,61,-1,-1,-1,-1,-1,-1,-1,-1,-1,-1,-1,-1,-1,-1,-1,-1,-1,-1,-1,-1,-1,-1,-1,-1,-1,-1,-1,-1,-1,-1,-1,-1],"loss_changes":[3.7394202E2,9.8829346E1,1.7761203E2,4.788733E1,5.4137146E1,1.4955977E2,4.8628296E1,8.269226E0,5.258539E1,4.4097122E1,1.2433624E1,4.714615E1,1.371157E2,5.5682E1,1.7631348E1,2.5758667E0,1.7227524E1,1.766809E1,7.196132E1,2.4266079E1,1.0289627E1,1.3736276E1,5.7746506E0,3.0847397E1,2.3256958E1,1.7206061E2,1.2949023E2,1.2374382E1,2.9456417E1,1.5015076E1,1.5708881E1,0E0,0E0,0E0,0E0,0E0,0E0,0E0,0E0,0E0,0E0,0E0,0E0,0E0,0E0,0E0,0E0,0E0,0E0,0E0,0E0,0E0,0E0,0E0,0E0,0E0,0E0,0E0,0E0,0E0,0E0,0E0,0E0],"parents":[2147483647,0,0,1,1,2,2,3,3,4,4,5,5,6,6,7,7,8,8,9,9,10,10,11,11,12,12,13,13,14,14,15,15,16,16,17,17,18,18,19,19,20,20,21,21,22,22,23,23,24,24,25,25,26,26,27,27,28,28,29,29,30,30],"right_children":[2,4,6,8,10,12,14,16,18,20,22,24,26,28,30,32,34,36,38,40,42,44,46,48,50,52,54,56,58,60,62,-1,-1,-1,-1,-1,-1,-1,-1,-1,-1,-1,-1,-1,-1,-1,-1,-1,-1,-1,-1,-1,-1,-1,-1,-1,-1,-1,-1,-1,-1,-1,-1],"split_conditions":[5.679546E-1,1E0,1E0,1.01913884E-1,5.392433E-1,2.180135E-1,6.446608E-1,5.3326905E-1,4.9583262E-1,7.0122313E-1,6.751878E-1,3.3522686E-1,3.9263418E-1,1.3623255E-1,3.4064573E-1,3.4418964E-1,1.0727586E-1,3.5907188E-1,9.6964665E-2,2.5748345E-1,4.282784E-1,6.382623E-1,4.4679797E-1,4.18794E-2,6.41757E-1,2.1995668E-1,6.293881E-1,2.1790351E-1,1.9900827E-1,1E0,5.0483286E-1,-9.912619E-2,2.2983901E-2,-9.2633E-2,-4.146256E-2,-8.0826275E-2,-3.3458434E-2,-6.90276E-2,9.276826E-3,6.897366E-2,-3.198783E-2,1.2475372E-2,-6.038946E-2,5.2006114E-3,-6.617504E-2,-8.874543E-2,-1.4924622E-2,-4.512171E-2,1.6253472E-3,7.275437E-2,-8.921494E-2,-4.914186E-2,4.519315E-2,2.4429172E-2,-4.442139E-2,-1.2895042E-2,2.8361326E-1,8.6121105E-2,-3.9704036E-2,-8.490197E-2,-2.7031666E-2,-2.2602718E-2,-7.260781E-2],"split_indices":[5,36,38,6,9,12,5,17,17,11,11,9,9,17,12,3,18,6,18,6,9,9,12,10,11,11,11,7,3,30,9,0,0,0,0,0,0,0,0,0,0,0,0,0,0,0,0,0,0,0,0,0,0,0,0,0,0,0,0,0,0,0,0],"split_type":[0,0,0,0,0,0,0,0,0,0,0,0,0,0,0,0,0,0,0,0,0,0,0,0,0,0,0,0,0,0,0,0,0,0,0,0,0,0,0,0,0,0,0,0,0,0,0,0,0,0,0,0,0,0,0,0,0,0,0,0,0,0,0],"sum_hessian":[7.172368E3,2.894561E3,4.277807E3,2.435247E3,4.5931412E2,3.3288955E3,9.4891156E2,9.8066833E2,1.4545786E3,2.333738E2,2.259403E2,8.917997E2,2.437096E3,1.688205E2,7.8009106E2,6.4462305E2,3.360453E2,9.747743E2,4.798043E2,1.3523186E2,9.8141945E1,1.07562614E2,1.1837769E2,6.590091E2,2.3279056E2,1.233233E3,1.2038629E3,8.19377E0,1.6062672E2,5.269726E2,2.5311847E2,6.432327E2,1.3903189E0,2.4240932E2,9.363596E1,8.8620667E2,8.8567635E1,2.7714227E2,2.02662E2,1.05196754E2,3.0035097E1,2.5949074E1,7.219287E1,4.9049305E1,5.851331E1,1.0611798E2,1.2259714E1,4.5457257E2,2.0443654E2,8.512058E0,2.242785E2,2.3909518E2,9.941378E2,4.1748145E2,7.863814E2,1.6253376E0,6.5684333E0,2.0475449E1,1.4015128E2,4.761903E2,5.078226E1,1.3109647E2,1.22021996E2],"tree_param":{"num_deleted":"0","num_feature":"45","num_nodes":"63","size_leaf_vector":"1"}},{"base_weights":[-3.6638114E-1,-6.455109E-1,-1.8924884E-1,-8.8869137E-1,-4.9590066E-1,-3.43272E-1,5.1667344E-2,-9.119527E-1,1.477321E-1,-3.36892E-1,-7.634087E-1,-1.8640059E-1,-6.4335114E-1,2.3334624E-1,-5.9750366E-1,-9.7184366E-1,-6.009146E-1,-4.1139457E-1,1.1501839E0,-5.2223617E-1,9.124207E-2,-6.8370426E-1,-8.952093E-1,-5.8055097E-1,-1.303482E-2,1.3794991E0,-7.195165E-1,2.2808852E-2,6.2501854E-1,-9.590185E-1,-4.460832E-1,-9.7845994E-2,-2.4129322E-2,-8.343709E-2,3.503033E-2,7.135926E-2,-8.738111E-2,-6.0259033E-2,2.5309098E-1,2.0146677E-2,-6.0594875E-2,1.6140415E-1,-4.509862E-3,-6.92079E-2,5.9448667E-2,-9.431786E-2,-3.728139E-2,-7.8214236E-2,-1.7329609E-2,1.355788E-2,-6.620952E-2,1.7549628E-1,-5.0194353E-2,-8.356435E-2,-3.5376113E-2,-3.4447096E-2,2.3565557E-2,3.95619E-2,1.523998E-1,-9.845211E-2,-4.26536E-3,-8.755834E-3,-6.2657386E-2],"categories":[],"categories_nodes":[],"categories_segments":[],"categories_sizes":[],"default_left":[0,0,0,0,0,0,0,0,0,0,0,0,0,0,0,0,0,0,0,0,0,0,0,0,0,0,0,0,0,0,0,0,0,0,0,0,0,0,0,0,0,0,0,0,0,0,0,0,0,0,0,0,0,0,0,0,0,0,0,0,0,0,0],"id":15,"left_children":[1,3,5,7,9,11,13,15,17,19,21,23,25,27,29,31,33,35,37,39,41,43,45,47,49,51,53,55,57,59,61,-1,-1,-1,-1,-1,-1,-1,-1,-1,-1,-1,-1,-1,-1,-1,-1,-1,-1,-1,-1,-1,-1,-1,-1,-1,-1,-1,-1,-1,-1,-1,-1],"loss_changes":[3.4182147E2,9.722839E1,1.5706837E2,2.4755554E1,7.053461E1,1.214216E2,1.9491547E2,1.8025146E1,1.3520517E1,8.301911E1,5.8975525E0,1.159496E2,1.374953E2,1.0644969E2,1.9355652E1,3.8049927E0,3.669266E1,8.780427E0,2.2333698E1,4.4339188E1,6.583657E1,4.5902557E0,5.419037E0,4.242198E1,1.1387251E2,2.3833237E1,3.599768E1,6.580548E1,9.247308E1,2.4309464E0,1.6548859E1,0E0,0E0,0E0,0E0,0E0,0E0,0E0,0E0,0E0,0E0,0E0,0E0,0E0,0E0,0E0,0E0,0E0,0E0,0E0,0E0,0E0,0E0,0E0,0E0,0E0,0E0,0E0,0E0,0E0,0E0,0E0,0E0],"parents":[2147483647,0,0,1,1,2,2,3,3,4,4,5,5,6,6,7,7,8,8,9,9,10,10,11,11,12,12,13,13,14,14,15,15,16,16,17,17,18,18,19,19,20,20,21,21,22,22,23,23,24,24,25,25,26,26,27,27,28,28,29,29,30,30],"right_children":[2,4,6,8,10,12,14,16,18,20,22,24,26,28,30,32,34,36,38,40,42,44,46,48,50,52,54,56,58,60,62,-1,-1,-1,-1,-1,-1,-1,-1,-1,-1,-1,-1,-1,-1,-1,-1,-1,-1,-1,-1,-1,-1,-1,-1,-1,-1,-1,-1,-1,-1,-1,-1],"split_conditions":[5.5971146E-1,2.9708186E-1,3.2551312E-1,4.2799395E-1,5.686546E-1,3.6518398E-1,5.754502E-1,1E0,1.0651474E-1,1E0,1E0,2.1995668E-1,5.926106E-1,1.2268483E-1,1.082707E-1,2.270705E-1,1.0890282E-1,1.9476373E-1,2.4241549E-1,3.8637158E-1,1.1557954E-1,4.6548024E-1,3.7747258E-1,1.1581202E-1,8.013927E-1,6.5509313E-1,1E0,2.1960385E-1,1E0,3.2011092E-1,5.7467926E-1,-9.7845994E-2,-2.4129322E-2,-8.343709E-2,3.503033E-2,7.135926E-2,-8.738111E-2,-6.0259033E-2,2.5309098E-1,2.0146677E-2,-6.0594875E-2,1.6140415E-1,-4.509862E-3,-6.92079E-2,5.9448667E-2,-9.431786E-2,-3.728139E-2,-7.8214236E-2,-1.7329609E-2,1.355788E-2,-6.620952E-2,1.7549628E-1,-5.0194353E-2,-8.356435E-2,-3.5376113E-2,-3.4447096E-2,2.3565557E-2,3.95619E-2,1.523998E-1,-9.845211E-2,-4.26536E-3,-8.755834E-3,-6.2657386E-2],"split_indices":[5,11,12,3,9,9,9,33,18,44,34,11,11,18,6,15,18,1,12,5,9,7,3,18,11,5,30,7,29,15,11,0,0,0,0,0,0,0,0,0,0,0,0,0,0,0,0,0,0,0,0,0,0,0,0,0,0,0,0,0,0,0,0],"split_type":[0,0,0,0,0,0,0,0,0,0,0,0,0,0,0,0,0,0,0,0,0,0,0,0,0,0,0,0,0,0,0,0,0,0,0,0,0,0,0,0,0,0,0,0,0,0,0,0,0,0,0,0,0,0,0,0,0,0,0,0,0,0,0],"sum_hessian":[6.914931E3,2.6835222E3,4.231409E3,1.0202465E3,1.6632755E3,2.5809343E3,1.6504746E3,9.979684E2,2.2278135E1,1.044611E3,6.186646E2,1.6959626E3,8.849718E2,1.2900719E3,3.6040274E2,8.3505286E2,1.6291556E2,1.4679899E1,7.5982366E0,7.288595E2,3.1575146E2,3.8938016E2,2.2928447E2,5.17368E2,1.1785946E3,3.1491377E1,8.534804E2,8.3974054E2,4.5033133E2,1.048178E2,2.5558495E2,8.2722174E2,7.831085E0,1.3090944E2,3.2006115E1,4.1180773E0,1.0561821E1,3.5963674E0,4.001869E0,7.542205E1,6.5343744E2,2.5056396E1,2.9069507E2,3.8730112E2,2.079052E0,2.0926326E2,2.002121E1,3.454497E2,1.719183E2,9.596559E2,2.1893875E2,2.6308445E1,5.182931E0,6.4682837E2,2.0665205E2,3.0787146E2,5.318691E2,3.5992624E2,9.04051E1,1.01907326E2,2.9104745E0,8.6080536E1,1.6950441E2],"tree_param":{"num_deleted":"0","num_feature":"45","num_nodes":"63","size_leaf_vector":"1"}},{"base_weights":[-3.430045E-1,-6.128275E-1,-1.7114468E-1,-8.614877E-1,-4.6793276E-1,-7.150545E-2,-5.371813E-1,-8.8804144E-1,4.836093E-1,-5.974082E-1,-1.599393E-1,-2.2296014E-1,1.8479772E-1,-3.5262175E-2,-6.4740306E-1,-9.4902694E-1,-5.7435817E-1,2.8806052E-1,1.1196548E-1,8.4050465E-1,-6.1644864E-1,-7.812106E-1,7.524909E-2,-3.6077613E-1,1.6267745E-1,3.9922318E-1,-5.491445E-1,1.880092E0,-1.6498584E-1,-7.541785E-1,-4.3680513E-1,-9.638718E-2,-2.4126183E-2,-8.149674E-2,3.0613795E-2,-3.9167427E-2,1.5147363E-1,2.0372283E-1,-7.654743E-4,-7.1315534E-2,-3.777268E-2,-8.3248265E-2,1.8480837E-1,3.1414546E-2,-6.1301406E-2,-4.425611E-2,1.4171011E-2,4.3781217E-2,-3.550451E-2,-2.397873E-2,5.3108938E-2,7.113337E-2,-7.274528E-2,-1.2586175E-2,2.2701097E-1,8.14296E-2,-3.2602593E-2,-8.135058E-2,-2.3874786E-2,-1.8846853E-2,-6.523623E-2],"categories":[],"categories_nodes":[],"categories_segments":[],"categories_sizes":[],"default_left":[0,0,0,0,0,0,0,0,0,0,0,0,0,0,0,0,0,0,0,0,0,0,0,0,0,0,0,0,0,0,0,0,0,0,0,0,0,0,0,0,0,0,0,0,0,0,0,0,0,0,0,0,0,0,0,0,0,0,0,0,0],"id":16,"left_children":[1,3,5,7,9,11,13,15,17,19,21,23,25,27,29,31,33,-1,35,37,39,41,43,45,47,49,51,53,55,57,59,-1,-1,-1,-1,-1,-1,-1,-1,-1,-1,-1,-1,-1,-1,-1,-1,-1,-1,-1,-1,-1,-1,-1,-1,-1,-1,-1,-1,-1,-1],"loss_changes":[3.099077E2,9.33064E1,1.4896524E2,3.458899E1,6.552396E1,1.24743805E2,4.8329056E1,1.740326E1,1.6747555E1,3.222632E1,7.141926E1,1.074E2,1.8808878E2,3.9674755E1,1.57838745E1,8.0043335E0,3.3139915E1,0E0,1.3048922E1,1.580765E1,2.6131409E1,1.962996E1,5.8592957E1,6.122412E1,7.5998245E1,7.802368E1,6.127516E1,8.21117E0,2.3810583E1,1.43038025E1,1.2909424E1,0E0,0E0,0E0,0E0,0E0,0E0,0E0,0E0,0E0,0E0,0E0,0E0,0E0,0E0,0E0,0E0,0E0,0E0,0E0,0E0,0E0,0E0,0E0,0E0,0E0,0E0,0E0,0E0,0E0,0E0],"parents":[2147483647,0,0,1,1,2,2,3,3,4,4,5,5,6,6,7,7,8,8,9,9,10,10,11,11,12,12,13,13,14,14,15,15,16,16,18,18,19,19,20,20,21,21,22,22,23,23,24,24,25,25,26,26,27,27,28,28,29,29,30,30],"right_children":[2,4,6,8,10,12,14,16,18,20,22,24,26,28,30,32,34,-1,36,38,40,42,44,46,48,50,52,54,56,58,60,-1,-1,-1,-1,-1,-1,-1,-1,-1,-1,-1,-1,-1,-1,-1,-1,-1,-1,-1,-1,-1,-1,-1,-1,-1,-1,-1,-1,-1,-1],"split_conditions":[5.770536E-1,2.9708186E-1,1E0,1E0,1E0,1.1627627E-1,6.446608E-1,1E0,5.2610433E-1,7.855842E-2,3.7126753E-1,1E0,7.6227504E-1,1.3623255E-1,3.4064573E-1,5.021221E-1,1.0890282E-1,2.8806052E-1,4.9154866E-1,1.1218222E-1,1E0,1E0,6.35584E-1,1E0,7.157136E-1,2.8568378E-2,2.6472032E-1,2.1790351E-1,1.9900827E-1,1E0,4.7182757E-1,-9.638718E-2,-2.4126183E-2,-8.149674E-2,3.0613795E-2,-3.9167427E-2,1.5147363E-1,2.0372283E-1,-7.654743E-4,-7.1315534E-2,-3.777268E-2,-8.3248265E-2,1.8480837E-1,3.1414546E-2,-6.1301406E-2,-4.425611E-2,1.4171011E-2,4.3781217E-2,-3.550451E-2,-2.397873E-2,5.3108938E-2,7.113337E-2,-7.274528E-2,-1.2586175E-2,2.2701097E-1,8.14296E-2,-3.2602593E-2,-8.135058E-2,-2.3874786E-2,-1.8846853E-2,-6.523623E-2],"split_indices":[5,11,38,27,44,18,5,33,5,9,17,30,11,17,12,3,18,0,3,18,42,28,17,24,11,0,9,7,3,30,9,0,0,0,0,0,0,0,0,0,0,0,0,0,0,0,0,0,0,0,0,0,0,0,0,0,0,0,0,0,0],"split_type":[0,0,0,0,0,0,0,0,0,0,0,0,0,0,0,0,0,0,0,0,0,0,0,0,0,0,0,0,0,0,0,0,0,0,0,0,0,0,0,0,0,0,0,0,0,0,0,0,0,0,0,0,0,0,0,0,0,0,0,0,0],"sum_hessian":[6.6843794E3,2.5999094E3,4.08447E3,9.553851E2,1.6445244E3,3.211468E3,8.7300183E2,9.37223E2,1.8162025E1,1.1571415E3,4.87383E2,2.0187048E3,1.1927632E3,1.574299E2,7.1557196E2,7.829737E2,1.5424933E2,1.5317423E0,1.6630283E1,1.4558485E1,1.142583E3,1.3320042E2,3.541826E2,1.4872633E3,5.314415E2,9.23433E2,2.6933023E2,9.130221E0,1.4829968E2,4.7311597E2,2.4245598E2,7.665344E2,1.643928E1,1.21203125E2,3.3046207E1,1.2767225E1,3.8630588E0,5.4569607E0,9.101524E0,8.1175275E2,3.308302E2,1.3132297E2,1.8774545E0,2.633257E2,9.0856865E1,1.2791821E3,2.080812E2,3.4712323E2,1.843183E2,1.5782246E2,7.656105E2,3.3007523E1,2.3632271E2,1.5964732E0,7.5337486E0,2.037051E1,1.2792917E2,4.2376172E2,4.9354244E1,1.1353279E2,1.289232E2],"tree_param":{"num_deleted":"0","num_feature":"45","num_nodes":"61","size_leaf_vector":"1"}},{"base_weights":[-3.2050335E-1,-5.8551526E-1,-1.5787706E-1,-8.4438294E-1,-4.404996E-1,1.496563E-1,-2.7084485E-1,-8.725398E-1,4.4220847E-1,-2.8588486E-1,-7.1254474E-1,-1.2767363E-1,5.255069E-1,-4.7549048E-1,-7.8819335E-2,-9.380219E-1,-5.477046E-1,2.3348494E-1,1.0488265E-1,-1.0642765E-1,-7.801869E-1,-7.3731405E-1,-1.8435764E-1,1.0959416E-1,-5.017525E-1,1.316113E0,3.2683486E-1,-3.3191594E-1,-7.946228E-1,-4.4636565E-1,1.2030422E-1,-9.5409036E-2,-2.2334902E-2,-7.948386E-2,2.6863774E-2,1.9399296E-1,-2.0127669E-2,1.9498184E-1,-1.9476779E-2,-9.6116364E-2,-5.4472286E-2,-6.4854756E-2,-8.9740984E-2,-5.8226187E-2,1.3007881E-1,-6.476989E-2,4.3142624E-2,6.232686E-2,-5.856499E-2,1.6736415E-1,-2.1154797E-2,5.6921598E-2,-2.0272614E-2,-5.9777346E-2,-1.3169467E-3,-8.928298E-2,7.1750544E-2,-2.1659207E-2,-5.9037566E-2,9.60316E-2,5.4973126E-3],"categories":[],"categories_nodes":[],"categories_segments":[],"categories_sizes":[],"default_left":[0,0,0,0,0,0,0,0,0,0,0,0,0,0,0,0,0,0,0,0,0,0,0,0,0,0,0,0,0,0,0,0,0,0,0,0,0,0,0,0,0,0,0,0,0,0,0,0,0,0,0,0,0,0,0,0,0,0,0,0,0],"id":17,"left_children":[1,3,5,7,9,11,13,15,17,19,21,23,25,27,29,31,33,-1,35,37,39,41,43,45,47,49,51,53,55,57,59,-1,-1,-1,-1,-1,-1,-1,-1,-1,-1,-1,-1,-1,-1,-1,-1,-1,-1,-1,-1,-1,-1,-1,-1,-1,-1,-1,-1,-1,-1],"loss_changes":[2.787787E2,9.1989136E1,1.3939833E2,3.234857E1,6.621423E1,1.1246117E2,1.1526102E2,1.7858826E1,1.2242449E1,8.937634E1,7.3415527E0,5.5196438E1,7.151097E1,6.4805786E1,1.10923325E2,8.025696E0,2.9932865E1,0E0,1.0305156E1,1.3498827E2,1.0916306E1,7.1717834E0,1.6674849E1,9.3129395E1,2.314006E1,5.0412064E1,4.726872E1,8.313972E1,6.597244E1,1.7493378E1,5.391232E1,0E0,0E0,0E0,0E0,0E0,0E0,0E0,0E0,0E0,0E0,0E0,0E0,0E0,0E0,0E0,0E0,0E0,0E0,0E0,0E0,0E0,0E0,0E0,0E0,0E0,0E0,0E0,0E0,0E0,0E0],"parents":[2147483647,0,0,1,1,2,2,3,3,4,4,5,5,6,6,7,7,8,8,9,9,10,10,11,11,12,12,13,13,14,14,15,15,16,16,18,18,19,19,20,20,21,21,22,22,23,23,24,24,25,25,26,26,27,27,28,28,29,29,30,30],"right_children":[2,4,6,8,10,12,14,16,18,20,22,24,26,28,30,32,34,-1,36,38,40,42,44,46,48,50,52,54,56,58,60,-1,-1,-1,-1,-1,-1,-1,-1,-1,-1,-1,-1,-1,-1,-1,-1,-1,-1,-1,-1,-1,-1,-1,-1,-1,-1,-1,-1,-1,-1],"split_conditions":[5.770536E-1,2.9708186E-1,6.6064334E-1,1E0,5.6165284E-1,1.05763204E-1,4.5605454E-1,1E0,5.2610433E-1,6.3347954E-1,8.4687546E-2,4.5907682E-1,1.998081E-1,7.49661E-1,2.0885016E-1,5.021221E-1,1.0890282E-1,2.3348494E-1,8.684784E-2,1.1557954E-1,9.523624E-2,1E0,1E0,3.238855E-1,5.152924E-1,5.85706E-1,4.9258867E-1,1.1218222E-1,1E0,2.1391831E-1,1.2242933E-1,-9.5409036E-2,-2.2334902E-2,-7.948386E-2,2.6863774E-2,1.9399296E-1,-2.0127669E-2,1.9498184E-1,-1.9476779E-2,-9.6116364E-2,-5.4472286E-2,-6.4854756E-2,-8.9740984E-2,-5.8226187E-2,1.3007881E-1,-6.476989E-2,4.3142624E-2,6.232686E-2,-5.856499E-2,1.6736415E-1,-2.1154797E-2,5.6921598E-2,-2.0272614E-2,-5.9777346E-2,-1.3169467E-3,-8.928298E-2,7.1750544E-2,-2.1659207E-2,-5.9037566E-2,9.60316E-2,5.4973126E-3],"split_indices":[5,11,5,27,9,18,17,33,5,17,4,9,17,11,12,3,18,0,8,9,18,34,42,11,11,9,9,18,24,7,7,0,0,0,0,0,0,0,0,0,0,0,0,0,0,0,0,0,0,0,0,0,0,0,0,0,0,0,0,0,0],"split_type":[0,0,0,0,0,0,0,0,0,0,0,0,0,0,0,0,0,0,0,0,0,0,0,0,0,0,0,0,0,0,0,0,0,0,0,0,0,0,0,0,0,0,0,0,0,0,0,0,0,0,0,0,0,0,0,0,0,0,0,0,0],"sum_hessian":[6.4696406E3,2.459347E3,4.0102937E3,8.813052E2,1.5780417E3,1.0772795E3,2.9330142E3,8.627459E2,1.8559238E1,1.00749225E3,5.7054956E2,6.2026404E2,4.5701556E2,1.4191354E3,1.5138788E3,7.1643524E2,1.463107E2,1.9116818E0,1.6647556E1,7.4003613E2,2.6745612E2,5.4461395E2,2.5935549E1,3.7996796E2,2.4029605E2,9.065073E1,3.6636484E2,9.801951E2,4.3894025E2,5.3152936E2,9.823494E2,7.003537E2,1.6081532E1,1.1233077E2,3.3979923E1,1.6173288E0,1.5030228E1,2.9615694E1,7.104204E2,1.4948247E2,1.1797365E2,3.536054E2,1.9100858E2,2.093463E1,5.00092E0,1.13017494E2,2.6695047E2,1.6230078E1,2.2406598E2,7.338127E1,1.7269457E1,2.5127905E2,1.1508578E2,5.3395935E2,4.462358E2,4.1255585E2,2.6384394E1,2.0575046E2,3.257789E2,6.989947E1,9.1244995E2],"tree_param":{"num_deleted":"0","num_feature":"45","num_nodes":"61","size_leaf_vector":"1"}},{"base_weights":[-2.9896834E-1,-6.766404E-1,-1.9220218E-1,-7.709082E-1,-3.2526317E-1,-8.975596E-2,-6.383304E-1,-7.8602624E-1,9.811751E-1,-7.907163E-1,1.2209297E-1,4.7778003E-2,-4.8945734E-1,-5.088436E-1,-7.6509386E-1,-9.172738E-1,-6.709996E-1,1.8135716E0,-5.882121E-1,-8.1039447E-1,3.571335E-1,8.8870263E-1,-2.6440006E-1,-1.507376E-1,3.5785905E-1,1.0256978E0,-6.792928E-1,-6.528629E-1,-3.9917815E-2,-8.517092E-1,-5.8767754E-1,-9.750908E-2,-8.114753E-2,-8.475043E-2,-5.238201E-2,2.3074737E-1,-2.4347257E-2,-7.572934E-2,-2.9767754E-3,-2.7347589E-2,-8.413421E-2,1.14452936E-1,-5.702281E-2,-6.627315E-2,1.4163947E-1,-3.2336544E-2,1.322267E-1,-4.8183125E-2,5.394569E-3,-2.3310311E-2,4.7029953E-2,2.611011E-1,4.7109675E-2,-7.9225786E-2,-6.8493052E-3,-5.678255E-2,-8.9938246E-2,9.945347E-2,-2.1906026E-2,-8.5726574E-2,1.1163094E-2,6.2041935E-2,-6.2190033E-2],"categories":[],"categories_nodes":[],"categories_segments":[],"categories_sizes":[],"default_left":[0,0,0,0,0,0,0,0,0,0,0,0,0,0,0,0,0,0,0,0,0,0,0,0,0,0,0,0,0,0,0,0,0,0,0,0,0,0,0,0,0,0,0,0,0,0,0,0,0,0,0,0,0,0,0,0,0,0,0,0,0,0,0],"id":18,"left_children":[1,3,5,7,9,11,13,15,17,19,21,23,25,27,29,31,33,35,37,39,41,43,45,47,49,51,53,55,57,59,61,-1,-1,-1,-1,-1,-1,-1,-1,-1,-1,-1,-1,-1,-1,-1,-1,-1,-1,-1,-1,-1,-1,-1,-1,-1,-1,-1,-1,-1,-1,-1,-1],"loss_changes":[2.5297357E2,4.555896E1,2.2366333E2,2.9635742E1,6.137178E1,2.18924E2,1.4612793E1,1.5703613E1,1.3826026E1,3.5500412E0,4.4951435E1,1.8247536E2,2.93934E2,3.0709862E1,6.566101E0,2.2803955E0,1.4618011E1,7.2946644E0,3.6837733E-1,2.1332092E0,2.9360883E0,4.2539623E1,9.88698E0,1.2251867E2,7.699097E1,9.892146E1,6.2499115E1,6.786972E0,2.0231861E1,1.737793E0,6.7562523E0,0E0,0E0,0E0,0E0,0E0,0E0,0E0,0E0,0E0,0E0,0E0,0E0,0E0,0E0,0E0,0E0,0E0,0E0,0E0,0E0,0E0,0E0,0E0,0E0,0E0,0E0,0E0,0E0,0E0,0E0,0E0,0E0],"parents":[2147483647,0,0,1,1,2,2,3,3,4,4,5,5,6,6,7,7,8,8,9,9,10,10,11,11,12,12,13,13,14,14,15,15,16,16,17,17,18,18,19,19,20,20,21,21,22,22,23,23,24,24,25,25,26,26,27,27,28,28,29,29,30,30],"right_children":[2,4,6,8,10,12,14,16,18,20,22,24,26,28,30,32,34,36,38,40,42,44,46,48,50,52,54,56,58,60,62,-1,-1,-1,-1,-1,-1,-1,-1,-1,-1,-1,-1,-1,-1,-1,-1,-1,-1,-1,-1,-1,-1,-1,-1,-1,-1,-1,-1,-1,-1,-1,-1],"split_conditions":[2.9192785E-2,1E0,5.686546E-1,1E0,9.25405E-2,7.49661E-1,6.4941955E-1,1.03466555E-1,2.0690262E-1,4.9883083E-1,1.2155592E-1,1.10506095E-1,2.6472032E-1,4.3988615E-1,2.5362462E-1,5.3326905E-1,9.523624E-2,5.829515E-1,2.7132085E-1,1.0247E-2,1.9307353E-1,2.26035E-1,4.3275946E-1,4.2372528E-1,2.8995568E-2,2.1050666E-1,3.466841E-1,6.7944944E-1,5.614663E-1,3.8074517E-1,1.5802534E-1,-9.750908E-2,-8.114753E-2,-8.475043E-2,-5.238201E-2,2.3074737E-1,-2.4347257E-2,-7.572934E-2,-2.9767754E-3,-2.7347589E-2,-8.413421E-2,1.14452936E-1,-5.702281E-2,-6.627315E-2,1.4163947E-1,-3.2336544E-2,1.322267E-1,-4.8183125E-2,5.394569E-3,-2.3310311E-2,4.7029953E-2,2.611011E-1,4.7109675E-2,-7.9225786E-2,-6.8493052E-3,-5.678255E-2,-8.9938246E-2,9.945347E-2,-2.1906026E-2,-8.5726574E-2,1.1163094E-2,6.2041935E-2,-6.2190033E-2],"split_indices":[10,44,9,24,18,11,9,6,9,11,9,18,9,12,7,17,18,17,1,16,9,11,13,11,0,9,12,11,11,6,3,0,0,0,0,0,0,0,0,0,0,0,0,0,0,0,0,0,0,0,0,0,0,0,0,0,0,0,0,0,0,0,0],"split_type":[0,0,0,0,0,0,0,0,0,0,0,0,0,0,0,0,0,0,0,0,0,0,0,0,0,0,0,0,0,0,0,0,0,0,0,0,0,0,0,0,0,0,0,0,0,0,0,0,0,0,0,0,0,0,0,0,0,0,0,0,0,0,0],"sum_hessian":[6.2759688E3,1.3819954E3,4.8939736E3,1.0887189E3,2.9327655E2,3.9810012E3,9.1297217E2,1.0799518E3,8.767089E0,1.4335492E2,1.4992162E2,2.9625073E3,1.01849396E3,4.5411517E2,4.5885703E2,5.0115247E2,5.7879926E2,5.626973E0,3.1401155E0,1.4122778E2,2.1271484E0,4.9814686E1,1.00106926E2,1.8064938E3,1.1560135E3,1.1290995E2,9.0558405E2,3.471149E2,1.0700026E2,3.0577557E2,1.5308144E2,3.187468E2,1.8240565E2,2.6101697E2,3.177823E2,4.4393344E0,1.1876388E0,2.1370113E0,1.0031043E0,8.232729E0,1.3299506E2,1.0237415E0,1.103407E0,1.2578253E1,3.7236435E1,9.728762E1,2.819305E0,6.8961896E2,1.1168748E3,1.8461986E2,9.713937E2,2.830187E1,8.460808E1,7.6399E2,1.4159404E2,2.605433E2,8.657162E1,1.5122752E1,9.187751E1,3.0413147E2,1.6441122E0,3.7451541E0,1.4933629E2],"tree_param":{"num_deleted":"0","num_feature":"45","num_nodes":"63","size_leaf_vector":"1"}},{"base_weights":[-2.7855134E-1,-6.6183656E-1,-1.8035741E-1,-8.441801E-1,-4.7432652E-1,-8.991325E-2,-6.249726E-1,-8.61633E-1,1.0942535E0,-6.35031E-1,1.2406047E-1,2.9557109E-2,-4.6228942E-1,7.857436E-2,-6.463348E-1,-9.3660426E-1,-7.434236E-1,-6.566503E-2,1.6098518E0,-7.286255E-1,-2.7158105E-1,-5.5212206E-1,5.209604E-1,-1.6970906E-1,2.8028235E-1,8.6758596E-1,-6.519862E-1,-7.2512645E-1,7.69802E-1,-5.208671E-1,-7.576206E-1,-8.2648985E-2,-9.858506E-2,-9.075638E-2,-5.917666E-2,1.4280777E-3,2.1180235E-1,-9.022897E-2,-4.779075E-2,3.9119795E-2,-8.339871E-2,-6.594441E-2,1.3286816E-1,9.9419616E-2,-6.0708124E-2,-5.0445206E-2,3.235512E-3,9.847172E-2,2.0988433E-2,2.0814674E-1,3.9206777E-2,-8.1816435E-2,-2.232409E-2,3.970576E-2,-8.758097E-2,-6.3516237E-3,1.831826E-1,5.8192164E-2,-5.7750233E-2,-7.6572016E-2,6.0020894E-2],"categories":[],"categories_nodes":[],"categories_segments":[],"categories_sizes":[],"default_left":[0,0,0,0,0,0,0,0,0,0,0,0,0,0,0,0,0,0,0,0,0,0,0,0,0,0,0,0,0,0,0,0,0,0,0,0,0,0,0,0,0,0,0,0,0,0,0,0,0,0,0,0,0,0,0,0,0,0,0,0,0],"id":19,"left_children":[1,3,5,7,9,11,13,15,17,19,21,23,25,27,29,31,33,-1,35,37,39,41,43,45,47,49,51,53,55,57,59,-1,-1,-1,-1,-1,-1,-1,-1,-1,-1,-1,-1,-1,-1,-1,-1,-1,-1,-1,-1,-1,-1,-1,-1,-1,-1,-1,-1,-1,-1],"loss_changes":[2.2944861E2,4.2119873E1,1.9525941E2,2.2229614E1,5.925746E1,1.7962021E2,1.2387543E1,4.835083E0,6.5234113E0,1.6309753E1,3.547719E1,1.528033E2,2.4797046E2,1.4491705E1,1.0730438E1,1.2354126E0,5.6133423E0,0E0,3.9973993E0,1.6345322E1,3.7962975E1,1.0763431E1,4.4984695E1,1.1528712E2,6.695438E1,7.0099014E1,6.1008545E1,2.3958077E0,1.2479022E1,2.3927109E1,5.0791626E0,0E0,0E0,0E0,0E0,0E0,0E0,0E0,0E0,0E0,0E0,0E0,0E0,0E0,0E0,0E0,0E0,0E0,0E0,0E0,0E0,0E0,0E0,0E0,0E0,0E0,0E0,0E0,0E0,0E0,0E0],"parents":[2147483647,0,0,1,1,2,2,3,3,4,4,5,5,6,6,7,7,8,8,9,9,10,10,11,11,12,12,13,13,14,14,15,15,16,16,18,18,19,19,20,20,21,21,22,22,23,23,24,24,25,25,26,26,27,27,28,28,29,29,30,30],"right_children":[2,4,6,8,10,12,14,16,18,20,22,24,26,28,30,32,34,-1,36,38,40,42,44,46,48,50,52,54,56,58,60,-1,-1,-1,-1,-1,-1,-1,-1,-1,-1,-1,-1,-1,-1,-1,-1,-1,-1,-1,-1,-1,-1,-1,-1,-1,-1,-1,-1,-1,-1],"split_conditions":[2.8100038E-2,9.62774E-2,5.754502E-1,1E0,1E0,7.49661E-1,1.6605386E-1,7.806671E-2,2.1112318E-1,1E0,2.474454E-1,1.0611687E-1,2.6472032E-1,2.3337863E-2,6.4941955E-1,1.8086286E-1,5.0351536E-1,-6.566503E-2,3.0294247E-2,1.4217392E-1,6.4285105E-1,4.13007E-1,6.6390693E-1,4.2372528E-1,1.998081E-1,2.1050666E-1,3.109167E-1,4.1297045E-1,1.5015675E-1,5.4671896E-1,4.8755935E-1,-8.2648985E-2,-9.858506E-2,-9.075638E-2,-5.917666E-2,1.4280777E-3,2.1180235E-1,-9.022897E-2,-4.779075E-2,3.9119795E-2,-8.339871E-2,-6.594441E-2,1.3286816E-1,9.9419616E-2,-6.0708124E-2,-5.0445206E-2,3.235512E-3,9.847172E-2,2.0988433E-2,2.0814674E-1,3.9206777E-2,-8.1816435E-2,-2.232409E-2,3.970576E-2,-8.758097E-2,-6.3516237E-3,1.831826E-1,5.8192164E-2,-5.7750233E-2,-7.6572016E-2,6.0020894E-2],"split_indices":[10,18,9,24,44,11,3,18,6,21,11,18,9,4,9,7,17,0,4,6,17,13,17,11,17,9,12,5,6,11,7,0,0,0,0,0,0,0,0,0,0,0,0,0,0,0,0,0,0,0,0,0,0,0,0,0,0,0,0,0,0],"split_type":[0,0,0,0,0,0,0,0,0,0,0,0,0,0,0,0,0,0,0,0,0,0,0,0,0,0,0,0,0,0,0,0,0,0,0,0,0,0,0,0,0,0,0,0,0,0,0,0,0,0,0,0,0,0,0,0,0,0,0,0,0],"sum_hessian":[6.098645E3,1.2426007E3,4.8560444E3,6.2820386E2,6.143968E2,4.0361985E3,8.198462E2,6.2314874E2,5.0550785E0,4.8427682E2,1.3011996E2,3.0564958E3,9.7970245E2,2.4080996E1,7.957652E2,3.7707526E2,2.4607353E2,1.0877281E0,3.9673505E0,3.8430667E2,9.997017E1,4.798269E1,8.2137276E1,1.7031919E3,1.3533041E3,1.2185568E2,8.5784674E2,1.1111937E1,1.2969058E1,3.7671878E2,4.1904642E2,1.2202058E2,2.5505467E2,1.1577955E2,1.3029398E2,1.2066811E0,2.7606692E0,2.2550667E2,1.588E2,4.6029808E1,5.394036E1,4.6006836E1,1.9758508E0,5.794631E1,2.4190968E1,6.405497E2,1.0626421E3,1.2177541E2,1.2315287E3,3.3348324E1,8.8507355E1,6.1757245E2,2.4027428E2,1.1218834E0,9.990053E0,7.793822E0,5.1752367E0,1.7948788E1,3.5877E2,4.169951E2,2.0513375E0],"tree_param":{"num_deleted":"0","num_feature":"45","num_nodes":"61","size_leaf_vector":"1"}},{"base_weights":[-2.5903323E-1,-5.267798E-1,-1.260453E-1,-8.1945235E-1,-3.68581E-1,-3.6458496E-2,-4.803046E-1,-8.3387077E-1,1.614267E0,-1.9145262E-1,-6.3078886E-1,-4.1770792E-1,4.161821E-2,-6.464875E-1,-2.210651E-1,-9.1595596E-1,-4.61493E-1,2.4486947E-1,-1.8938106E-2,-6.627892E-1,-9.416171E-3,-6.774353E-1,-9.815535E-2,-2.651953E-1,-8.012718E-1,2.0522293E-1,-1.594451E-1,6.345798E-1,-6.721853E-1,-4.7242108E-1,5.6161348E-2,-9.3072295E-2,2.818895E-2,-7.352026E-2,2.8634746E-2,4.609493E-2,-7.532566E-2,2.07664E-2,-6.1147984E-2,-7.76109E-2,-4.6565063E-2,-4.4120684E-2,1.07194416E-1,1.982583E-2,-3.8665224E-2,9.965598E-2,-8.562657E-2,-8.935631E-3,4.7814347E-2,4.3758724E-2,-3.22945E-2,9.707405E-2,-7.264567E-2,3.5976093E-2,-6.9499716E-2,-8.464333E-2,-3.3306386E-2,7.6050244E-2,-2.165915E-2],"categories":[],"categories_nodes":[],"categories_segments":[],"categories_sizes":[],"default_left":[0,0,0,0,0,0,0,0,0,0,0,0,0,0,0,0,0,0,0,0,0,0,0,0,0,0,0,0,0,0,0,0,0,0,0,0,0,0,0,0,0,0,0,0,0,0,0,0,0,0,0,0,0,0,0,0,0,0,0],"id":20,"left_children":[1,3,5,7,9,11,13,15,17,19,21,23,25,27,29,31,33,-1,-1,35,37,39,41,43,45,47,49,51,53,55,57,-1,-1,-1,-1,-1,-1,-1,-1,-1,-1,-1,-1,-1,-1,-1,-1,-1,-1,-1,-1,-1,-1,-1,-1,-1,-1,-1,-1],"loss_changes":[2.1135553E2,9.091693E1,1.25930145E2,2.5574463E1,5.9360474E1,9.433498E1,3.4361862E1,2.0578156E1,7.09647E0,6.569892E1,1.2751419E1,3.1299706E1,8.657511E1,1.6476685E1,2.1933687E1,1.02022705E1,2.6024221E1,0E0,0E0,2.2035973E1,7.2460434E1,9.548111E0,1.7618006E1,2.185655E1,1.5956703E1,1.1669803E2,1.15412476E2,5.327122E0,1.1512741E1,8.317699E0,2.9056849E1,0E0,0E0,0E0,0E0,0E0,0E0,0E0,0E0,0E0,0E0,0E0,0E0,0E0,0E0,0E0,0E0,0E0,0E0,0E0,0E0,0E0,0E0,0E0,0E0,0E0,0E0,0E0,0E0],"parents":[2147483647,0,0,1,1,2,2,3,3,4,4,5,5,6,6,7,7,8,8,9,9,10,10,11,11,12,12,13,13,14,14,15,15,16,16,19,19,20,20,21,21,22,22,23,23,24,24,25,25,26,26,27,27,28,28,29,29,30,30],"right_children":[2,4,6,8,10,12,14,16,18,20,22,24,26,28,30,32,34,-1,-1,36,38,40,42,44,46,48,50,52,54,56,58,-1,-1,-1,-1,-1,-1,-1,-1,-1,-1,-1,-1,-1,-1,-1,-1,-1,-1,-1,-1,-1,-1,-1,-1,-1,-1,-1,-1],"split_conditions":[5.4169637E-1,2.9708186E-1,1E0,1E0,5.392433E-1,1.9277877E-1,3.4064573E-1,1E0,5.904909E-1,2.31437E-1,3.7747258E-1,3.0169797E-1,3.9263418E-1,1.3193797E-1,2.558163E-1,5.021221E-1,1.0890282E-1,2.4486947E-1,-1.8938106E-2,1.7927064E-1,6.3347954E-1,1E0,1E0,4.3828225E-1,6.1252135E-1,4.9883083E-1,5.96859E-1,3.0192405E-1,1.12535745E-1,7.666168E-2,6.428438E-1,-9.3072295E-2,2.818895E-2,-7.352026E-2,2.8634746E-2,4.609493E-2,-7.532566E-2,2.07664E-2,-6.1147984E-2,-7.76109E-2,-4.6565063E-2,-4.4120684E-2,1.07194416E-1,1.982583E-2,-3.8665224E-2,9.965598E-2,-8.562657E-2,-8.935631E-3,4.7814347E-2,4.3758724E-2,-3.22945E-2,9.707405E-2,-7.264567E-2,3.5976093E-2,-6.9499716E-2,-8.464333E-2,-3.3306386E-2,7.6050244E-2,-2.165915E-2],"split_indices":[5,11,38,27,9,12,12,33,17,12,3,9,9,3,7,3,18,0,0,7,17,36,42,3,11,11,11,7,7,18,5,0,0,0,0,0,0,0,0,0,0,0,0,0,0,0,0,0,0,0,0,0,0,0,0,0,0,0,0],"split_type":[0,0,0,0,0,0,0,0,0,0,0,0,0,0,0,0,0,0,0,0,0,0,0,0,0,0,0,0,0,0,0,0,0,0,0,0,0,0,0,0,0,0,0,0,0,0,0,0,0,0,0,0,0,0,0,0,0,0,0],"sum_hessian":[5.936639E3,1.9691534E3,3.9674856E3,6.894569E2,1.2796965E3,3.1675605E3,7.9992505E2,6.860498E2,3.4070919E0,7.6479047E2,5.149061E2,5.376856E2,2.6298748E3,4.8653983E2,3.1338522E2,5.609393E2,1.2511052E2,2.084909E0,1.3221829E0,2.1234268E2,5.524478E2,4.7319342E2,4.171268E1,3.8592545E2,1.517602E2,1.449996E3,1.1798788E3,9.101967E0,4.7743787E2,1.6399236E2,1.4939287E2,5.5432855E2,6.6107416E0,9.160133E1,3.3509186E1,1.5515979E1,1.968267E2,4.0652585E2,1.4592195E2,3.2097955E2,1.5221385E2,3.2737568E1,8.975116E0,8.000626E1,3.0591916E2,3.996234E0,1.4776395E2,6.9765173E2,7.5234424E2,2.5329102E2,9.265878E2,7.5291224E0,1.5728444E0,1.0006353E1,4.6743152E2,4.31394E1,1.2085296E2,4.120339E1,1.08189476E2],"tree_param":{"num_deleted":"0","num_feature":"45","num_nodes":"59","size_leaf_vector":"1"}},{"base_weights":[-2.4049716E-1,-6.291937E-1,-1.5481511E-1,-8.3202505E-1,-4.2802027E-1,-4.4705477E-2,-4.702908E-1,-8.470895E-1,7.841047E-1,-5.922425E-1,1.4670177E-1,-4.1410425E-1,7.342371E-2,-6.018555E-1,-2.2261916E-1,-8.799882E-1,-5.233191E-1,1.6056823E0,-5.3173523E-2,-7.008365E-1,-2.1924235E-1,5.966756E-1,-4.280428E-1,-1.8575788E-1,-7.870689E-1,-4.0192488E-1,1.3850254E-1,-5.222297E-1,-8.269275E-1,8.706826E-2,-7.016067E-1,-7.185286E-2,-9.311203E-2,1.0025145E-1,-6.727628E-2,4.822379E-2,2.137382E-1,-8.6865865E-2,-4.6049803E-2,3.810067E-2,-7.936343E-2,1.0470014E-1,-1.9355629E-2,-5.019583E-2,9.232094E-2,-5.004385E-2,-2.3227623E-3,1.4838059E-1,-8.725303E-2,-4.875667E-2,1.2286883E-1,4.385475E-2,-6.48124E-3,7.5169355E-2,-5.591339E-2,-4.8875492E-2,-8.82354E-2,-1.4670386E-2,7.172831E-2,-7.4829884E-2,5.6678583E-3],"categories":[],"categories_nodes":[],"categories_segments":[],"categories_sizes":[],"default_left":[0,0,0,0,0,0,0,0,0,0,0,0,0,0,0,0,0,0,0,0,0,0,0,0,0,0,0,0,0,0,0,0,0,0,0,0,0,0,0,0,0,0,0,0,0,0,0,0,0,0,0,0,0,0,0,0,0,0,0,0,0],"id":21,"left_children":[1,3,5,7,9,11,13,15,17,19,21,23,25,27,29,31,33,35,-1,37,39,41,43,45,47,49,51,53,55,57,59,-1,-1,-1,-1,-1,-1,-1,-1,-1,-1,-1,-1,-1,-1,-1,-1,-1,-1,-1,-1,-1,-1,-1,-1,-1,-1,-1,-1,-1,-1],"loss_changes":[1.926E2,4.2273376E1,1.6470935E2,1.33038025E1,4.9785538E1,1.5347475E2,3.984204E1,5.023468E0,6.598468E0,1.6443222E1,3.0727436E1,7.243004E1,8.25045E1,1.3916687E1,6.343019E1,3.177246E0,1.2065771E1,1.0719681E0,0E0,1.2381699E1,3.265901E1,2.3868797E1,5.689232E0,2.7089018E1,6.40392E1,4.5454853E1,1.4308267E2,2.8351608E1,3.4582977E0,3.846039E1,5.985573E0,0E0,0E0,0E0,0E0,0E0,0E0,0E0,0E0,0E0,0E0,0E0,0E0,0E0,0E0,0E0,0E0,0E0,0E0,0E0,0E0,0E0,0E0,0E0,0E0,0E0,0E0,0E0,0E0,0E0,0E0],"parents":[2147483647,0,0,1,1,2,2,3,3,4,4,5,5,6,6,7,7,8,8,9,9,10,10,11,11,12,12,13,13,14,14,15,15,16,16,17,17,19,19,20,20,21,21,22,22,23,23,24,24,25,25,26,26,27,27,28,28,29,29,30,30],"right_children":[2,4,6,8,10,12,14,16,18,20,22,24,26,28,30,32,34,36,-1,38,40,42,44,46,48,50,52,54,56,58,60,-1,-1,-1,-1,-1,-1,-1,-1,-1,-1,-1,-1,-1,-1,-1,-1,-1,-1,-1,-1,-1,-1,-1,-1,-1,-1,-1,-1,-1,-1],"split_conditions":[2.675236E-2,9.62774E-2,5.1075184E-1,1E0,1E0,2.180135E-1,4.1502964E-1,1E0,5.596357E-1,1E0,1.4486195E-1,7.4373096E-1,2.3167863E-1,1E0,6.533026E-1,1.0527283E-1,3.1720933E-2,3.8954E-2,-5.3173523E-2,1.4217392E-1,6.4285105E-1,6.483066E-1,4.2845643E-1,2.2878562E-1,2.1050666E-1,1E0,6.4894056E-1,1.7570676E-1,5.7800937E-1,2.8364044E-1,3.4756157E-1,-7.185286E-2,-9.311203E-2,1.0025145E-1,-6.727628E-2,4.822379E-2,2.137382E-1,-8.6865865E-2,-4.6049803E-2,3.810067E-2,-7.936343E-2,1.0470014E-1,-1.9355629E-2,-5.019583E-2,9.232094E-2,-5.004385E-2,-2.3227623E-3,1.4838059E-1,-8.725303E-2,-4.875667E-2,1.2286883E-1,4.385475E-2,-6.48124E-3,7.5169355E-2,-5.591339E-2,-4.8875492E-2,-8.82354E-2,-1.4670386E-2,7.172831E-2,-7.4829884E-2,5.6678583E-3],"split_indices":[10,18,9,24,44,12,12,27,17,21,9,11,11,39,9,9,15,4,0,6,17,17,13,11,9,27,11,3,11,7,7,0,0,0,0,0,0,0,0,0,0,0,0,0,0,0,0,0,0,0,0,0,0,0,0,0,0,0,0,0,0],"split_type":[0,0,0,0,0,0,0,0,0,0,0,0,0,0,0,0,0,0,0,0,0,0,0,0,0,0,0,0,0,0,0,0,0,0,0,0,0,0,0,0,0,0,0,0,0,0,0,0,0,0,0,0,0,0,0,0,0,0,0,0,0],"sum_hessian":[5.7849595E3,1.043731E3,4.7412285E3,5.181624E2,5.2556854E2,3.5153994E3,1.2258287E3,5.138485E2,4.3139E0,4.0874304E2,1.1682552E2,8.511826E2,2.6642168E3,7.9963025E2,4.2619852E2,4.648923E2,4.8956196E1,2.5201252E0,1.7937751E0,3.158954E2,9.2847664E1,6.550376E1,5.1321762E1,5.288773E2,3.223053E2,3.2020447E2,2.3440125E3,5.9311774E2,2.065125E2,2.5934094E2,1.6685759E2,1.1543521E2,3.494571E2,3.8579416E0,4.5098255E1,1.4221646E0,1.0979605E0,1.8447025E2,1.3142514E2,4.5566547E1,4.7281116E1,4.1518738E1,2.398502E1,4.9255913E1,2.0658488E0,1.794189E2,3.494584E2,1.1096172E1,3.1120914E2,3.0489215E2,1.53123255E1,9.46316E2,1.3976964E3,1.6152956E1,5.769648E2,3.0463577E1,1.7604892E2,1.8972974E2,6.96112E1,1.5719154E2,9.666048E0],"tree_param":{"num_deleted":"0","num_feature":"45","num_nodes":"61","size_leaf_vector":"1"}},{"base_weights":[-2.2302718E-1,-5.2258223E-1,-1.1769876E-1,-8.021727E-1,-3.6498314E-1,1.2531444E-1,-3.0529892E-1,-8.1934965E-1,4.2010844E-1,-6.601693E-1,-1.7649978E-1,1.8214488E-1,-7.753844E-1,-5.434415E-1,-1.2198349E-1,-9.404049E-1,-6.4015317E-1,1.2042072E0,-1.7776008E-1,-7.326745E-1,3.907674E-1,-3.633315E-1,3.2077467E-1,-9.807999E-2,3.9564884E-1,2.3005073E-1,-8.2681817E-1,7.734569E-1,-5.788604E-1,1.3105592E-1,-5.1834047E-1,-9.4937705E-2,1.266339E-4,-8.5427515E-2,-2.1126702E-2,2.9926801E-2,1.4557941E-1,5.3028204E-2,-9.394156E-2,-8.9753784E-2,-6.222659E-2,1.3540058E-1,-3.9711807E-2,-2.7503042E-2,-8.723433E-2,8.3449505E-2,-6.719693E-3,-7.311823E-2,1.0067272E-2,2.0050727E-1,2.712403E-2,-8.9995444E-2,-4.7782414E-2,1.6179352E-1,-8.310043E-2,-4.663721E-2,-8.14346E-2,6.630916E-2,-1.3938019E-2,-9.211472E-2,-4.4379953E-2],"categories":[],"categories_nodes":[],"categories_segments":[],"categories_sizes":[],"default_left":[0,0,0,0,0,0,0,0,0,0,0,0,0,0,0,0,0,0,0,0,0,0,0,0,0,0,0,0,0,0,0,0,0,0,0,0,0,0,0,0,0,0,0,0,0,0,0,0,0,0,0,0,0,0,0,0,0,0,0,0,0],"id":22,"left_children":[1,3,5,7,9,11,13,15,17,19,21,23,25,27,29,31,33,35,37,39,41,43,45,47,49,-1,51,53,55,57,59,-1,-1,-1,-1,-1,-1,-1,-1,-1,-1,-1,-1,-1,-1,-1,-1,-1,-1,-1,-1,-1,-1,-1,-1,-1,-1,-1,-1,-1,-1],"loss_changes":[1.781206E2,6.442862E1,1.9057805E2,1.1443268E1,5.2248405E1,9.338033E1,1.0291411E2,1.0714325E1,3.9584281E0,2.8205887E1,5.3609467E1,1.02599915E2,1.9035706E1,4.829184E1,1.3388019E2,2.613617E0,1.9422073E1,3.803277E-1,3.4120252E0,5.686844E0,1.8979103E1,1.8592346E1,3.1502247E1,9.345143E1,1.9430487E2,0E0,2.3075714E0,3.832564E1,2.6095123E1,1.1737373E2,1.5206818E1,0E0,0E0,0E0,0E0,0E0,0E0,0E0,0E0,0E0,0E0,0E0,0E0,0E0,0E0,0E0,0E0,0E0,0E0,0E0,0E0,0E0,0E0,0E0,0E0,0E0,0E0,0E0,0E0,0E0,0E0],"parents":[2147483647,0,0,1,1,2,2,3,3,4,4,5,5,6,6,7,7,8,8,9,9,10,10,11,11,12,12,13,13,14,14,15,15,16,16,17,17,18,18,19,19,20,20,21,21,22,22,23,23,24,24,26,26,27,27,28,28,29,29,30,30],"right_children":[2,4,6,8,10,12,14,16,18,20,22,24,26,28,30,32,34,36,38,40,42,44,46,48,50,-1,52,54,56,58,60,-1,-1,-1,-1,-1,-1,-1,-1,-1,-1,-1,-1,-1,-1,-1,-1,-1,-1,-1,-1,-1,-1,-1,-1,-1,-1,-1,-1,-1,-1],"split_conditions":[3.67107E-2,1.01913884E-1,3.8915604E-1,5.5243415E-1,9.25405E-2,1E0,3.3646497E-1,5.3326905E-1,1.727184E-1,5.5716E-1,1E0,4.2372528E-1,7.2469634E-1,5.4671896E-1,5.754502E-1,2.270705E-1,1.0727586E-1,2.5853977E-1,4.9583262E-1,6.6905044E-2,2.2077869E-1,6.4285105E-1,1.4752883E-1,7.525944E-2,5.989726E-1,2.3005073E-1,4.0330994E-1,5.85706E-1,7.4373096E-1,6.274351E-1,1.043492E-1,-9.4937705E-2,1.266339E-4,-8.5427515E-2,-2.1126702E-2,2.9926801E-2,1.4557941E-1,5.3028204E-2,-9.394156E-2,-8.9753784E-2,-6.222659E-2,1.3540058E-1,-3.9711807E-2,-2.7503042E-2,-8.723433E-2,8.3449505E-2,-6.719693E-3,-7.311823E-2,1.0067272E-2,2.0050727E-1,2.712403E-2,-8.9995444E-2,-4.7782414E-2,1.6179352E-1,-8.310043E-2,-4.663721E-2,-8.14346E-2,6.630916E-2,-1.3938019E-2,-9.211472E-2,-4.4379953E-2],"split_indices":[10,6,9,11,18,23,12,17,7,11,44,11,11,11,9,15,18,1,17,18,9,17,9,18,11,0,3,9,11,11,6,0,0,0,0,0,0,0,0,0,0,0,0,0,0,0,0,0,0,0,0,0,0,0,0,0,0,0,0,0,0],"split_type":[0,0,0,0,0,0,0,0,0,0,0,0,0,0,0,0,0,0,0,0,0,0,0,0,0,0,0,0,0,0,0,0,0,0,0,0,0,0,0,0,0,0,0,0,0,0,0,0,0,0,0,0,0,0,0,0,0,0,0,0,0],"sum_hessian":[5.6463135E3,1.4678298E3,4.1784834E3,5.276523E2,9.401775E2,1.8205344E3,2.3579492E3,5.20665E2,6.98734E0,3.6540677E2,5.7477075E2,1.7132341E3,1.0730033E2,1.0247483E3,1.3332008E3,3.0820847E2,2.1245648E2,2.5841222E0,4.403218E0,3.4210727E2,2.3299486E1,4.1799472E2,1.5677603E2,7.410904E2,9.7214374E2,1.0455519E0,1.0625478E2,2.629371E1,9.984546E2,8.1412335E2,5.1907745E2,3.052915E2,2.9169576E0,1.4104683E2,7.140965E1,1.0384431E0,1.5456791E0,2.4393513E0,1.9638666E0,1.3435612E2,2.0775116E2,1.0159879E1,1.3139607E1,3.5751495E2,6.0479763E1,6.696092E1,8.981512E1,1.7642654E2,5.646639E2,6.867004E1,9.034737E2,8.654039E1,1.9714388E1,1.7221235E1,9.072474E0,6.777047E2,3.2074985E2,2.738734E2,5.4024994E2,7.928378E1,4.397937E2],"tree_param":{"num_deleted":"0","num_feature":"45","num_nodes":"61","size_leaf_vector":"1"}},{"base_weights":[-2.0700273E-1,-1.1842194E-1,-5.5482846E-1,-4.0314507E-1,-2.4296278E-2,-7.5855654E-1,-3.8418028E-1,-6.263841E-1,-1.495825E-1,2.434738E-1,-1.8902713E-1,-8.038494E-1,-1.2659232E-1,-5.7606673E-1,-1.0685187E-1,-6.785138E-1,2.469565E-1,-3.286954E-1,2.405607E-1,2.984503E-1,-6.8305093E-1,8.523097E-2,-3.954235E-1,-8.6050653E-1,-2.8191942E-1,6.000285E-1,-7.613355E-1,-6.161524E-1,-9.548641E-5,2.1356474E-1,-3.691196E-1,-8.3932936E-2,-5.3741183E-2,7.080604E-2,-5.7178594E-2,-6.828075E-2,-1.884107E-2,6.232639E-2,-3.5338663E-2,1.8629555E-2,1.1839064E-1,-8.509251E-2,4.3574598E-2,6.411742E-2,-3.5086676E-2,-6.304363E-2,-2.0664081E-2,-2.6273847E-2,-8.825671E-2,-8.231961E-2,3.3704005E-2,1.1784049E-1,-8.703093E-2,3.351726E-2,-8.895857E-2,-9.802299E-2,-5.5657893E-2,-4.670779E-2,7.8468874E-2,-8.413767E-2,4.0433835E-2,5.8479416E-3,-6.308214E-2],"categories":[],"categories_nodes":[],"categories_segments":[],"categories_sizes":[],"default_left":[0,0,0,0,0,0,0,0,0,0,0,0,0,0,0,0,0,0,0,0,0,0,0,0,0,0,0,0,0,0,0,0,0,0,0,0,0,0,0,0,0,0,0,0,0,0,0,0,0,0,0,0,0,0,0,0,0,0,0,0,0,0,0],"id":23,"left_children":[1,3,5,7,9,11,13,15,17,19,21,23,25,27,29,31,33,35,37,39,41,43,45,47,49,51,53,55,57,59,61,-1,-1,-1,-1,-1,-1,-1,-1,-1,-1,-1,-1,-1,-1,-1,-1,-1,-1,-1,-1,-1,-1,-1,-1,-1,-1,-1,-1,-1,-1,-1,-1],"loss_changes":[1.6971071E2,1.1772458E2,3.858368E1,6.1685776E1,1.4572812E2,1.4458191E1,3.2428024E1,2.6577728E1,3.5879425E1,6.4301506E1,1.1581149E2,1.3787872E1,1.669412E1,8.32608E0,2.1163559E1,1.197673E1,1.3017547E1,1.7334648E1,3.699236E1,1.1781509E2,1.3666107E1,2.133594E2,5.165544E1,5.4058533E0,1.6341572E1,1.5460325E1,3.0026245E0,6.767174E0,9.332549E0,2.3195957E1,1.5517408E1,0E0,0E0,0E0,0E0,0E0,0E0,0E0,0E0,0E0,0E0,0E0,0E0,0E0,0E0,0E0,0E0,0E0,0E0,0E0,0E0,0E0,0E0,0E0,0E0,0E0,0E0,0E0,0E0,0E0,0E0,0E0,0E0],"parents":[2147483647,0,0,1,1,2,2,3,3,4,4,5,5,6,6,7,7,8,8,9,9,10,10,11,11,12,12,13,13,14,14,15,15,16,16,17,17,18,18,19,19,20,20,21,21,22,22,23,23,24,24,25,25,26,26,27,27,28,28,29,29,30,30],"right_children":[2,4,6,8,10,12,14,16,18,20,22,24,26,28,30,32,34,36,38,40,42,44,46,48,50,52,54,56,58,60,62,-1,-1,-1,-1,-1,-1,-1,-1,-1,-1,-1,-1,-1,-1,-1,-1,-1,-1,-1,-1,-1,-1,-1,-1,-1,-1,-1,-1,-1,-1,-1,-1],"split_conditions":[1E0,3.67107E-2,2.89597E-1,1.05763204E-1,3.547222E-1,1E0,2.4861683E-1,5.5716E-1,1E0,8.724856E-1,6.524199E-1,1E0,7.185873E-1,1E0,4.6230915E-1,7.806671E-2,2.4119997E-1,1.0271416E-1,1.6781533E-1,1E0,3.5265914E-1,5.33063E-1,3.0059153E-1,1.828309E-1,7.382889E-2,4.3753493E-1,2.8525308E-1,9.009098E-2,8.254788E-2,4.50514E-1,2.2022836E-1,-8.3932936E-2,-5.3741183E-2,7.080604E-2,-5.7178594E-2,-6.828075E-2,-1.884107E-2,6.232639E-2,-3.5338663E-2,1.8629555E-2,1.1839064E-1,-8.509251E-2,4.3574598E-2,6.411742E-2,-3.5086676E-2,-6.304363E-2,-2.0664081E-2,-2.6273847E-2,-8.825671E-2,-8.231961E-2,3.3704005E-2,1.1784049E-1,-8.703093E-2,3.351726E-2,-8.895857E-2,-9.802299E-2,-5.5657893E-2,-4.670779E-2,7.8468874E-2,-8.413767E-2,4.0433835E-2,5.8479416E-3,-6.308214E-2],"split_indices":[38,10,12,18,9,30,7,11,44,11,11,27,11,30,9,18,9,6,9,24,12,9,12,17,18,9,9,6,18,11,17,0,0,0,0,0,0,0,0,0,0,0,0,0,0,0,0,0,0,0,0,0,0,0,0,0,0,0,0,0,0,0,0],"split_type":[0,0,0,0,0,0,0,0,0,0,0,0,0,0,0,0,0,0,0,0,0,0,0,0,0,0,0,0,0,0,0,0,0,0,0,0,0,0,0,0,0,0,0,0,0,0,0,0,0,0,0,0,0,0,0,0,0,0,0,0,0,0,0],"sum_hessian":[5.509312E3,4.3921133E3,1.117199E3,1.0904127E3,3.3017004E3,5.0767133E2,6.0952765E2,5.7909845E2,5.113143E2,1.2573688E3,2.0443315E3,4.7346603E2,3.4205288E1,3.5962332E2,2.4990433E2,5.466896E2,3.240885E1,3.5054037E2,1.607739E2,1.1875801E3,6.978868E1,8.781023E2,1.1662292E3,4.265175E2,4.694855E1,1.5973896E1,1.823139E1,3.3615805E2,2.346526E1,1.1256617E2,1.3733815E2,2.5318423E2,2.9350537E2,2.081905E1,1.1589802E1,9.836822E1,2.5217216E2,9.774419E1,6.3029716E1,1.0551427E3,1.3243742E2,6.0891426E1,8.897255E0,3.85804E2,4.9229828E2,5.184629E2,6.4776636E2,1.5639835E1,4.1087766E2,2.4869951E1,2.20786E1,1.16067705E1,4.3671255E0,1.7401453E0,1.6491245E1,4.5097145E1,2.910609E2,1.4965147E1,8.500113E0,1.6716543E1,9.5849625E1,5.2437E1,8.490115E1],"tree_param":{"num_deleted":"0","num_feature":"45","num_nodes":"63","size_leaf_vector":"1"}},{"base_weights":[-1.9186756E-1,-1.0920345E-1,-5.284184E-1,-1.9384547E-1,1.837605E-1,-7.377698E-1,-3.596043E-1,-7.023068E-2,-4.4706365E-1,8.901241E-2,8.687813E-1,-7.8340006E-1,-1.2169699E-1,-5.466752E-1,-9.880373E-2,-5.3362215E-1,-1.4258723E-3,-6.557029E-1,-3.208533E-1,-6.4608894E-2,4.8755622E-1,1.7503827E0,3.0073464E-1,-8.4316957E-1,-2.6278323E-1,5.464672E-1,-7.3735744E-1,-7.295497E-1,-4.1729853E-1,5.514866E-1,-2.2014669E-1,-5.8084395E-2,1.0344855E-1,1.1203283E-2,-3.2651868E-2,-6.769558E-2,4.4858944E-2,1.3541533E-1,-3.4839403E-2,3.948608E-3,-4.944502E-2,1.09342396E-1,3.2501683E-2,-9.751732E-3,1.9119297E-1,-3.4406886E-2,6.801327E-2,-2.4334718E-2,-8.667197E-2,-8.017135E-2,2.9636974E-2,1.0578543E-1,-8.530671E-2,3.0912418E-2,-8.710797E-2,-7.4741416E-2,8.137958E-2,-6.935913E-2,-2.9162541E-2,-4.0503167E-2,1.023979E-1,6.890997E-3,-5.1843446E-2],"categories":[],"categories_nodes":[],"categories_segments":[],"categories_sizes":[],"default_left":[0,0,0,0,0,0,0,0,0,0,0,0,0,0,0,0,0,0,0,0,0,0,0,0,